digraph Tree {
node [shape=box] ;
0 [label="X[69] <= -1.0696\nmse = 5.2603\nsamples = 176987\nvalue = 8.9439"] ;
1 [label="X[23] <= -2.1625\nmse = 6.9062\nsamples = 24343\nvalue = 4.412"] ;
0 -> 1 [labeldistance=2.5, labelangle=45, headlabel="True"] ;
2 [label="X[69] <= -2.9267\nmse = 4.12\nsamples = 9971\nvalue = 2.7657"] ;
1 -> 2 ;
3 [label="X[69] <= -3.4183\nmse = 2.2652\nsamples = 5088\nvalue = 1.753"] ;
2 -> 3 ;
4 [label="X[33] <= 0.3477\nmse = 1.7162\nsamples = 2179\nvalue = 1.1824"] ;
3 -> 4 ;
5 [label="X[13] <= -2.4278\nmse = 1.2908\nsamples = 2136\nvalue = 1.1146"] ;
4 -> 5 ;
6 [label="X[69] <= -3.746\nmse = 0.7046\nsamples = 1496\nvalue = 0.8917"] ;
5 -> 6 ;
7 [label="X[33] <= -1.5489\nmse = 0.3632\nsamples = 333\nvalue = 0.4306"] ;
6 -> 7 ;
8 [label="X[23] <= -2.8761\nmse = 0.2345\nsamples = 331\nvalue = 0.4113"] ;
7 -> 8 ;
9 [label="X[44] <= -0.05\nmse = 0.1867\nsamples = 306\nvalue = 0.3607"] ;
8 -> 9 ;
10 [label="mse = 2.2001\nsamples = 6\nvalue = 1.6042"] ;
9 -> 10 ;
11 [label="mse = 0.1149\nsamples = 300\nvalue = 0.3358"] ;
9 -> 11 ;
12 [label="X[37] <= -1.2438\nmse = 0.4054\nsamples = 25\nvalue = 1.03"] ;
8 -> 12 ;
13 [label="mse = 0.1871\nsamples = 13\nvalue = 1.4808"] ;
12 -> 13 ;
14 [label="mse = 0.1832\nsamples = 12\nvalue = 0.5417"] ;
12 -> 14 ;
15 [label="X[65] <= 0.4649\nmse = 11.3906\nsamples = 2\nvalue = 3.625"] ;
7 -> 15 ;
16 [label="mse = 0.0\nsamples = 1\nvalue = 0.25"] ;
15 -> 16 ;
17 [label="mse = 0.0\nsamples = 1\nvalue = 7.0"] ;
15 -> 17 ;
18 [label="X[3] <= -2.4946\nmse = 0.7241\nsamples = 1163\nvalue = 1.0237"] ;
6 -> 18 ;
19 [label="X[69] <= -3.6368\nmse = 0.3918\nsamples = 966\nvalue = 0.9303"] ;
18 -> 19 ;
20 [label="X[14] <= 0.649\nmse = 0.2948\nsamples = 310\nvalue = 0.7296"] ;
19 -> 20 ;
21 [label="mse = 1.2813\nsamples = 16\nvalue = 1.5"] ;
20 -> 21 ;
22 [label="mse = 0.2071\nsamples = 294\nvalue = 0.6877"] ;
20 -> 22 ;
23 [label="X[13] <= -2.883\nmse = 0.4096\nsamples = 656\nvalue = 1.0252"] ;
19 -> 23 ;
24 [label="mse = 2.8412\nsamples = 18\nvalue = 2.1528"] ;
23 -> 24 ;
25 [label="mse = 0.3041\nsamples = 638\nvalue = 0.9933"] ;
23 -> 25 ;
26 [label="X[53] <= -0.4183\nmse = 2.1009\nsamples = 197\nvalue = 1.4816"] ;
18 -> 26 ;
27 [label="X[51] <= -0.5248\nmse = 1.6095\nsamples = 195\nvalue = 1.4096"] ;
26 -> 27 ;
28 [label="mse = 6.3305\nsamples = 20\nvalue = 2.8125"] ;
27 -> 28 ;
29 [label="mse = 0.8194\nsamples = 175\nvalue = 1.2493"] ;
27 -> 29 ;
30 [label="X[42] <= 1.2886\nmse = 0.25\nsamples = 2\nvalue = 8.5"] ;
26 -> 30 ;
31 [label="mse = 0.0\nsamples = 1\nvalue = 9.0"] ;
30 -> 31 ;
32 [label="mse = 0.0\nsamples = 1\nvalue = 8.0"] ;
30 -> 32 ;
33 [label="X[32] <= -0.1285\nmse = 2.2734\nsamples = 640\nvalue = 1.6355"] ;
5 -> 33 ;
34 [label="X[61] <= -1.283\nmse = 4.3391\nsamples = 129\nvalue = 2.6105"] ;
33 -> 34 ;
35 [label="mse = 0.0\nsamples = 3\nvalue = 10.0"] ;
34 -> 35 ;
36 [label="X[33] <= -3.2084\nmse = 3.1113\nsamples = 126\nvalue = 2.4345"] ;
34 -> 36 ;
37 [label="mse = 0.0\nsamples = 1\nvalue = 10.0"] ;
36 -> 37 ;
38 [label="X[54] <= -0.0785\nmse = 2.6746\nsamples = 125\nvalue = 2.374"] ;
36 -> 38 ;
39 [label="mse = 4.4722\nsamples = 6\nvalue = 4.6667"] ;
38 -> 39 ;
40 [label="mse = 2.3056\nsamples = 119\nvalue = 2.2584"] ;
38 -> 40 ;
41 [label="X[21] <= -2.3676\nmse = 1.4514\nsamples = 511\nvalue = 1.3894"] ;
33 -> 41 ;
42 [label="X[43] <= -3.1232\nmse = 8.2832\nsamples = 7\nvalue = 5.8929"] ;
41 -> 42 ;
43 [label="X[31] <= -2.9265\nmse = 3.5156\nsamples = 2\nvalue = 2.125"] ;
42 -> 43 ;
44 [label="mse = 0.0\nsamples = 1\nvalue = 0.25"] ;
43 -> 44 ;
45 [label="mse = 0.0\nsamples = 1\nvalue = 4.0"] ;
43 -> 45 ;
46 [label="X[32] <= 0.5067\nmse = 2.24\nsamples = 5\nvalue = 7.4"] ;
42 -> 46 ;
47 [label="mse = 0.2222\nsamples = 3\nvalue = 6.3333"] ;
46 -> 47 ;
48 [label="mse = 1.0\nsamples = 2\nvalue = 9.0"] ;
46 -> 48 ;
49 [label="X[12] <= 3.9111\nmse = 1.071\nsamples = 504\nvalue = 1.3269"] ;
41 -> 49 ;
50 [label="X[43] <= -2.0693\nmse = 0.9672\nsamples = 502\nvalue = 1.3063"] ;
49 -> 50 ;
51 [label="mse = 0.8618\nsamples = 483\nvalue = 1.2557"] ;
50 -> 51 ;
52 [label="mse = 1.929\nsamples = 19\nvalue = 2.5921"] ;
50 -> 52 ;
53 [label="X[67] <= -1.3019\nmse = 0.25\nsamples = 2\nvalue = 6.5"] ;
49 -> 53 ;
54 [label="mse = 0.0\nsamples = 1\nvalue = 6.0"] ;
53 -> 54 ;
55 [label="mse = 0.0\nsamples = 1\nvalue = 7.0"] ;
53 -> 55 ;
56 [label="X[4] <= 1.1129\nmse = 11.2633\nsamples = 43\nvalue = 4.5523"] ;
4 -> 56 ;
57 [label="X[19] <= 0.7855\nmse = 7.4417\nsamples = 15\nvalue = 7.25"] ;
56 -> 57 ;
58 [label="X[24] <= 0.6423\nmse = 0.5556\nsamples = 6\nvalue = 9.3333"] ;
57 -> 58 ;
59 [label="mse = 0.0\nsamples = 3\nvalue = 10.0"] ;
58 -> 59 ;
60 [label="X[36] <= -1.3093\nmse = 0.2222\nsamples = 3\nvalue = 8.6667"] ;
58 -> 60 ;
61 [label="mse = 0.0\nsamples = 1\nvalue = 8.0"] ;
60 -> 61 ;
62 [label="mse = 0.0\nsamples = 2\nvalue = 9.0"] ;
60 -> 62 ;
63 [label="X[61] <= 0.0407\nmse = 7.2099\nsamples = 9\nvalue = 5.8611"] ;
57 -> 63 ;
64 [label="X[18] <= -0.0886\nmse = 3.2222\nsamples = 6\nvalue = 7.3333"] ;
63 -> 64 ;
65 [label="X[13] <= -2.1092\nmse = 0.2222\nsamples = 3\nvalue = 5.6667"] ;
64 -> 65 ;
66 [label="mse = 0.0\nsamples = 1\nvalue = 5.0"] ;
65 -> 66 ;
67 [label="mse = 0.0\nsamples = 2\nvalue = 6.0"] ;
65 -> 67 ;
68 [label="X[9] <= 0.0183\nmse = 0.6667\nsamples = 3\nvalue = 9.0"] ;
64 -> 68 ;
69 [label="mse = 0.0\nsamples = 1\nvalue = 10.0"] ;
68 -> 69 ;
70 [label="mse = 0.25\nsamples = 2\nvalue = 8.5"] ;
68 -> 70 ;
71 [label="X[31] <= 1.2295\nmse = 2.1806\nsamples = 3\nvalue = 2.9167"] ;
63 -> 71 ;
72 [label="X[12] <= 1.1396\nmse = 0.0156\nsamples = 2\nvalue = 1.875"] ;
71 -> 72 ;
73 [label="mse = 0.0\nsamples = 1\nvalue = 1.75"] ;
72 -> 73 ;
74 [label="mse = 0.0\nsamples = 1\nvalue = 2.0"] ;
72 -> 74 ;
75 [label="mse = 0.0\nsamples = 1\nvalue = 5.0"] ;
71 -> 75 ;
76 [label="X[52] <= 1.5879\nmse = 7.3233\nsamples = 28\nvalue = 3.1071"] ;
56 -> 76 ;
77 [label="X[57] <= -0.9446\nmse = 1.0421\nsamples = 14\nvalue = 1.6071"] ;
76 -> 77 ;
78 [label="X[8] <= 0.2812\nmse = 0.2314\nsamples = 11\nvalue = 1.1364"] ;
77 -> 78 ;
79 [label="X[49] <= 1.2201\nmse = 0.065\nsamples = 5\nvalue = 1.6"] ;
78 -> 79 ;
80 [label="mse = 0.0139\nsamples = 3\nvalue = 1.4167"] ;
79 -> 80 ;
81 [label="mse = 0.0156\nsamples = 2\nvalue = 1.875"] ;
79 -> 81 ;
82 [label="X[19] <= 0.9339\nmse = 0.0417\nsamples = 6\nvalue = 0.75"] ;
78 -> 82 ;
83 [label="mse = 0.0\nsamples = 2\nvalue = 0.5"] ;
82 -> 83 ;
84 [label="mse = 0.0156\nsamples = 4\nvalue = 0.875"] ;
82 -> 84 ;
85 [label="X[31] <= 1.3018\nmse = 0.2222\nsamples = 3\nvalue = 3.3333"] ;
77 -> 85 ;
86 [label="mse = 0.0\nsamples = 2\nvalue = 3.0"] ;
85 -> 86 ;
87 [label="mse = 0.0\nsamples = 1\nvalue = 4.0"] ;
85 -> 87 ;
88 [label="X[39] <= 0.0651\nmse = 9.1046\nsamples = 14\nvalue = 4.6071"] ;
76 -> 88 ;
89 [label="X[43] <= -3.1232\nmse = 2.25\nsamples = 4\nvalue = 7.5"] ;
88 -> 89 ;
90 [label="mse = 0.0\nsamples = 2\nvalue = 9.0"] ;
89 -> 90 ;
91 [label="mse = 0.0\nsamples = 2\nvalue = 6.0"] ;
89 -> 91 ;
92 [label="X[43] <= -2.4708\nmse = 7.16\nsamples = 10\nvalue = 3.45"] ;
88 -> 92 ;
93 [label="X[25] <= -1.1153\nmse = 2.2305\nsamples = 8\nvalue = 2.3125"] ;
92 -> 93 ;
94 [label="mse = 0.0\nsamples = 1\nvalue = 6.0"] ;
93 -> 94 ;
95 [label="mse = 0.3291\nsamples = 7\nvalue = 1.7857"] ;
93 -> 95 ;
96 [label="X[49] <= 1.2201\nmse = 1.0\nsamples = 2\nvalue = 8.0"] ;
92 -> 96 ;
97 [label="mse = 0.0\nsamples = 1\nvalue = 9.0"] ;
96 -> 97 ;
98 [label="mse = 0.0\nsamples = 1\nvalue = 7.0"] ;
96 -> 98 ;
99 [label="X[13] <= -2.2458\nmse = 2.2499\nsamples = 2909\nvalue = 2.1804"] ;
3 -> 99 ;
100 [label="X[63] <= 1.2226\nmse = 1.4834\nsamples = 1741\nvalue = 1.8861"] ;
99 -> 100 ;
101 [label="X[9] <= -0.37\nmse = 2.3623\nsamples = 699\nvalue = 2.2092"] ;
100 -> 101 ;
102 [label="X[28] <= 0.0674\nmse = 0.6667\nsamples = 3\nvalue = 9.0"] ;
101 -> 102 ;
103 [label="X[20] <= 0.5617\nmse = 0.25\nsamples = 2\nvalue = 9.5"] ;
102 -> 103 ;
104 [label="mse = 0.0\nsamples = 1\nvalue = 10.0"] ;
103 -> 104 ;
105 [label="mse = 0.0\nsamples = 1\nvalue = 9.0"] ;
103 -> 105 ;
106 [label="mse = 0.0\nsamples = 1\nvalue = 8.0"] ;
102 -> 106 ;
107 [label="X[32] <= -2.2257\nmse = 2.1699\nsamples = 696\nvalue = 2.18"] ;
101 -> 107 ;
108 [label="X[64] <= -0.5419\nmse = 2.8889\nsamples = 3\nvalue = 8.3333"] ;
107 -> 108 ;
109 [label="mse = 0.0\nsamples = 1\nvalue = 6.0"] ;
108 -> 109 ;
110 [label="X[18] <= -0.4115\nmse = 0.25\nsamples = 2\nvalue = 9.5"] ;
108 -> 110 ;
111 [label="mse = 0.0\nsamples = 1\nvalue = 9.0"] ;
110 -> 111 ;
112 [label="mse = 0.0\nsamples = 1\nvalue = 10.0"] ;
110 -> 112 ;
113 [label="X[3] <= -2.7008\nmse = 2.0022\nsamples = 693\nvalue = 2.1533"] ;
107 -> 113 ;
114 [label="X[56] <= -0.1172\nmse = 1.0275\nsamples = 401\nvalue = 1.8448"] ;
113 -> 114 ;
115 [label="mse = 0.7758\nsamples = 300\nvalue = 1.6575"] ;
114 -> 115 ;
116 [label="mse = 1.3615\nsamples = 101\nvalue = 2.401"] ;
114 -> 116 ;
117 [label="X[51] <= -2.4537\nmse = 3.0304\nsamples = 292\nvalue = 2.5771"] ;
113 -> 117 ;
118 [label="mse = 8.1667\nsamples = 3\nvalue = 6.5"] ;
117 -> 118 ;
119 [label="mse = 2.8157\nsamples = 289\nvalue = 2.5363"] ;
117 -> 119 ;
120 [label="X[22] <= -2.3275\nmse = 0.7768\nsamples = 1042\nvalue = 1.6694"] ;
100 -> 120 ;
121 [label="X[68] <= 1.559\nmse = 0.56\nsamples = 5\nvalue = 4.8"] ;
120 -> 121 ;
122 [label="mse = 0.0\nsamples = 2\nvalue = 4.0"] ;
121 -> 122 ;
123 [label="X[8] <= -2.6846\nmse = 0.2222\nsamples = 3\nvalue = 5.3333"] ;
121 -> 123 ;
124 [label="mse = 0.0\nsamples = 1\nvalue = 6.0"] ;
123 -> 124 ;
125 [label="mse = 0.0\nsamples = 2\nvalue = 5.0"] ;
123 -> 125 ;
126 [label="X[61] <= -0.5113\nmse = 0.7304\nsamples = 1037\nvalue = 1.6543"] ;
120 -> 126 ;
127 [label="X[43] <= -1.2663\nmse = 1.8013\nsamples = 73\nvalue = 2.2808"] ;
126 -> 127 ;
128 [label="X[42] <= -0.8552\nmse = 1.2224\nsamples = 70\nvalue = 2.1429"] ;
127 -> 128 ;
129 [label="mse = 0.1056\nsamples = 10\nvalue = 1.025"] ;
128 -> 129 ;
130 [label="mse = 1.1656\nsamples = 60\nvalue = 2.3292"] ;
128 -> 130 ;
131 [label="X[21] <= -1.2268\nmse = 4.5\nsamples = 3\nvalue = 5.5"] ;
127 -> 131 ;
132 [label="mse = 0.0\nsamples = 1\nvalue = 2.5"] ;
131 -> 132 ;
133 [label="mse = 0.0\nsamples = 2\nvalue = 7.0"] ;
131 -> 133 ;
134 [label="X[51] <= -1.1516\nmse = 0.6173\nsamples = 964\nvalue = 1.6068"] ;
126 -> 134 ;
135 [label="mse = 0.0\nsamples = 1\nvalue = 8.0"] ;
134 -> 135 ;
136 [label="X[56] <= 1.6146\nmse = 0.5754\nsamples = 963\nvalue = 1.6002"] ;
134 -> 136 ;
137 [label="mse = 0.5457\nsamples = 962\nvalue = 1.5946"] ;
136 -> 137 ;
138 [label="mse = 0.0\nsamples = 1\nvalue = 7.0"] ;
136 -> 138 ;
139 [label="X[33] <= -0.7903\nmse = 3.0709\nsamples = 1168\nvalue = 2.619"] ;
99 -> 139 ;
140 [label="X[41] <= -1.1172\nmse = 2.3287\nsamples = 1042\nvalue = 2.4667"] ;
139 -> 140 ;
141 [label="X[36] <= -0.3706\nmse = 6.3538\nsamples = 75\nvalue = 3.6967"] ;
140 -> 141 ;
142 [label="X[68] <= 0.3\nmse = 4.2866\nsamples = 65\nvalue = 3.1885"] ;
141 -> 142 ;
143 [label="X[55] <= -1.3964\nmse = 5.5556\nsamples = 3\nvalue = 8.3333"] ;
142 -> 143 ;
144 [label="mse = 0.0\nsamples = 2\nvalue = 10.0"] ;
143 -> 144 ;
145 [label="mse = 0.0\nsamples = 1\nvalue = 5.0"] ;
143 -> 145 ;
146 [label="X[13] <= -0.5617\nmse = 2.8824\nsamples = 62\nvalue = 2.9395"] ;
142 -> 146 ;
147 [label="mse = 2.5117\nsamples = 58\nvalue = 2.7629"] ;
146 -> 147 ;
148 [label="mse = 1.25\nsamples = 4\nvalue = 5.5"] ;
146 -> 148 ;
149 [label="X[8] <= -3.5287\nmse = 7.2\nsamples = 10\nvalue = 7.0"] ;
141 -> 149 ;
150 [label="mse = 0.0\nsamples = 2\nvalue = 3.0"] ;
149 -> 150 ;
151 [label="X[17] <= -1.0537\nmse = 4.0\nsamples = 8\nvalue = 8.0"] ;
149 -> 151 ;
152 [label="mse = 0.0\nsamples = 1\nvalue = 4.0"] ;
151 -> 152 ;
153 [label="mse = 1.9592\nsamples = 7\nvalue = 8.5714"] ;
151 -> 153 ;
154 [label="X[52] <= -1.7437\nmse = 1.8901\nsamples = 967\nvalue = 2.3713"] ;
140 -> 154 ;
155 [label="X[56] <= 0.9411\nmse = 5.8668\nsamples = 17\nvalue = 4.5294"] ;
154 -> 155 ;
156 [label="X[43] <= -1.8686\nmse = 0.6458\nsamples = 12\nvalue = 3.25"] ;
155 -> 156 ;
157 [label="mse = 0.35\nsamples = 10\nvalue = 3.0"] ;
156 -> 157 ;
158 [label="mse = 0.25\nsamples = 2\nvalue = 4.5"] ;
156 -> 158 ;
159 [label="X[38] <= -1.373\nmse = 5.04\nsamples = 5\nvalue = 7.6"] ;
155 -> 159 ;
160 [label="mse = 0.2222\nsamples = 3\nvalue = 9.3333"] ;
159 -> 160 ;
161 [label="mse = 1.0\nsamples = 2\nvalue = 5.0"] ;
159 -> 161 ;
162 [label="X[43] <= -2.8221\nmse = 1.7341\nsamples = 950\nvalue = 2.3326"] ;
154 -> 162 ;
163 [label="X[1] <= -1.508\nmse = 0.9365\nsamples = 350\nvalue = 1.9543"] ;
162 -> 163 ;
164 [label="mse = 1.36\nsamples = 5\nvalue = 3.8"] ;
163 -> 164 ;
165 [label="mse = 0.8803\nsamples = 345\nvalue = 1.9275"] ;
163 -> 165 ;
166 [label="X[13] <= -1.6541\nmse = 2.0672\nsamples = 600\nvalue = 2.5533"] ;
162 -> 166 ;
167 [label="mse = 1.449\nsamples = 519\nvalue = 2.4475"] ;
166 -> 167 ;
168 [label="mse = 5.4966\nsamples = 81\nvalue = 3.2315"] ;
166 -> 168 ;
169 [label="X[55] <= 1.183\nmse = 7.4293\nsamples = 126\nvalue = 3.879"] ;
139 -> 169 ;
170 [label="X[36] <= -1.1215\nmse = 6.4783\nsamples = 121\nvalue = 3.6591"] ;
169 -> 170 ;
171 [label="X[53] <= -2.4186\nmse = 9.105\nsamples = 22\nvalue = 5.7614"] ;
170 -> 171 ;
172 [label="X[4] <= 0.4406\nmse = 6.7958\nsamples = 17\nvalue = 6.7941"] ;
171 -> 172 ;
173 [label="mse = 1.2653\nsamples = 7\nvalue = 8.8571"] ;
172 -> 173 ;
174 [label="mse = 5.6025\nsamples = 10\nvalue = 5.35"] ;
172 -> 174 ;
175 [label="X[61] <= -1.0899\nmse = 1.0\nsamples = 5\nvalue = 2.25"] ;
171 -> 175 ;
176 [label="mse = 0.0\nsamples = 1\nvalue = 4.0"] ;
175 -> 176 ;
177 [label="mse = 0.293\nsamples = 4\nvalue = 1.8125"] ;
175 -> 177 ;
178 [label="X[39] <= 1.2529\nmse = 4.6942\nsamples = 99\nvalue = 3.1919"] ;
170 -> 178 ;
179 [label="X[57] <= -0.2329\nmse = 3.7645\nsamples = 82\nvalue = 2.8415"] ;
178 -> 179 ;
180 [label="mse = 3.1705\nsamples = 81\nvalue = 2.7531"] ;
179 -> 180 ;
181 [label="mse = 0.0\nsamples = 1\nvalue = 10.0"] ;
179 -> 181 ;
182 [label="X[69] <= -3.0906\nmse = 5.7288\nsamples = 17\nvalue = 4.8824"] ;
178 -> 182 ;
183 [label="mse = 1.1597\nsamples = 6\nvalue = 2.6667"] ;
182 -> 183 ;
184 [label="mse = 4.0826\nsamples = 11\nvalue = 6.0909"] ;
182 -> 184 ;
185 [label="X[53] <= 0.2485\nmse = 0.96\nsamples = 5\nvalue = 9.2"] ;
169 -> 185 ;
186 [label="mse = 0.0\nsamples = 2\nvalue = 8.0"] ;
185 -> 186 ;
187 [label="mse = 0.0\nsamples = 3\nvalue = 10.0"] ;
185 -> 187 ;
188 [label="X[69] <= -1.9435\nmse = 3.8704\nsamples = 4883\nvalue = 3.821"] ;
2 -> 188 ;
189 [label="X[3] <= 0.2896\nmse = 3.0387\nsamples = 3474\nvalue = 3.3768"] ;
188 -> 189 ;
190 [label="X[69] <= -2.3805\nmse = 2.6574\nsamples = 3292\nvalue = 3.2751"] ;
189 -> 190 ;
191 [label="X[61] <= -0.1485\nmse = 2.4314\nsamples = 2269\nvalue = 3.0249"] ;
190 -> 191 ;
192 [label="X[13] <= -0.9258\nmse = 3.6686\nsamples = 640\nvalue = 3.482"] ;
191 -> 192 ;
193 [label="X[23] <= -2.4955\nmse = 3.1479\nsamples = 614\nvalue = 3.3726"] ;
192 -> 193 ;
194 [label="X[36] <= 0.6619\nmse = 2.7295\nsamples = 339\nvalue = 3.0332"] ;
193 -> 194 ;
195 [label="mse = 1.9787\nsamples = 283\nvalue = 2.8489"] ;
194 -> 195 ;
196 [label="mse = 5.4853\nsamples = 56\nvalue = 3.9643"] ;
194 -> 196 ;
197 [label="X[11] <= 0.7241\nmse = 3.3467\nsamples = 275\nvalue = 3.7909"] ;
193 -> 197 ;
198 [label="mse = 3.0867\nsamples = 273\nvalue = 3.7454"] ;
197 -> 198 ;
199 [label="mse = 0.0\nsamples = 2\nvalue = 10.0"] ;
197 -> 199 ;
200 [label="X[36] <= -0.5114\nmse = 8.9979\nsamples = 26\nvalue = 6.0673"] ;
192 -> 200 ;
201 [label="X[53] <= -0.4183\nmse = 2.1306\nsamples = 10\nvalue = 3.475"] ;
200 -> 201 ;
202 [label="mse = 0.56\nsamples = 5\nvalue = 4.8"] ;
201 -> 202 ;
203 [label="mse = 0.19\nsamples = 5\nvalue = 2.15"] ;
201 -> 203 ;
204 [label="X[17] <= -0.8071\nmse = 6.4648\nsamples = 16\nvalue = 7.6875"] ;
200 -> 204 ;
205 [label="mse = 1.8889\nsamples = 6\nvalue = 4.6667"] ;
204 -> 205 ;
206 [label="mse = 0.45\nsamples = 10\nvalue = 9.5"] ;
204 -> 206 ;
207 [label="X[23] <= -2.5906\nmse = 1.8309\nsamples = 1629\nvalue = 2.8453"] ;
191 -> 207 ;
208 [label="X[8] <= -3.004\nmse = 1.4318\nsamples = 564\nvalue = 2.543"] ;
207 -> 208 ;
209 [label="X[51] <= 0.8961\nmse = 12.25\nsamples = 4\nvalue = 6.5"] ;
208 -> 209 ;
210 [label="mse = 2.8889\nsamples = 3\nvalue = 8.3333"] ;
209 -> 210 ;
211 [label="mse = 0.0\nsamples = 1\nvalue = 1.0"] ;
209 -> 211 ;
212 [label="X[34] <= -0.5658\nmse = 1.2419\nsamples = 560\nvalue = 2.5147"] ;
208 -> 212 ;
213 [label="mse = 1.0145\nsamples = 88\nvalue = 3.2926"] ;
212 -> 213 ;
214 [label="mse = 1.1505\nsamples = 472\nvalue = 2.3697"] ;
212 -> 214 ;
215 [label="X[27] <= -1.2168\nmse = 1.9682\nsamples = 1065\nvalue = 3.0054"] ;
207 -> 215 ;
216 [label="X[62] <= -2.0777\nmse = 3.1159\nsamples = 172\nvalue = 3.6235"] ;
215 -> 216 ;
217 [label="mse = 0.25\nsamples = 2\nvalue = 8.5"] ;
216 -> 217 ;
218 [label="mse = 2.8666\nsamples = 170\nvalue = 3.5662"] ;
216 -> 218 ;
219 [label="X[21] <= -0.6612\nmse = 1.6594\nsamples = 893\nvalue = 2.8863"] ;
215 -> 219 ;
220 [label="mse = 7.095\nsamples = 11\nvalue = 4.8636"] ;
219 -> 220 ;
221 [label="mse = 1.5422\nsamples = 882\nvalue = 2.8617"] ;
219 -> 221 ;
222 [label="X[42] <= 0.8419\nmse = 2.7119\nsamples = 1023\nvalue = 3.83"] ;
190 -> 222 ;
223 [label="X[65] <= 0.1781\nmse = 2.1923\nsamples = 916\nvalue = 3.7362"] ;
222 -> 223 ;
224 [label="X[61] <= -2.9386\nmse = 1.9056\nsamples = 522\nvalue = 3.4758"] ;
223 -> 224 ;
225 [label="X[23] <= -2.4955\nmse = 4.0\nsamples = 9\nvalue = 6.0"] ;
224 -> 225 ;
226 [label="mse = 0.25\nsamples = 2\nvalue = 9.5"] ;
225 -> 226 ;
227 [label="mse = 0.5714\nsamples = 7\nvalue = 5.0"] ;
225 -> 227 ;
228 [label="X[31] <= 0.6639\nmse = 1.7551\nsamples = 513\nvalue = 3.4315"] ;
224 -> 228 ;
229 [label="mse = 1.6628\nsamples = 411\nvalue = 3.5885"] ;
228 -> 229 ;
230 [label="mse = 1.6275\nsamples = 102\nvalue = 2.799"] ;
228 -> 230 ;
231 [label="X[22] <= -1.4009\nmse = 2.3633\nsamples = 394\nvalue = 4.0812"] ;
223 -> 231 ;
232 [label="X[33] <= -2.3075\nmse = 8.2725\nsamples = 17\nvalue = 6.1029"] ;
231 -> 232 ;
233 [label="mse = 3.6875\nsamples = 8\nvalue = 8.25"] ;
232 -> 233 ;
234 [label="mse = 4.608\nsamples = 9\nvalue = 4.1944"] ;
232 -> 234 ;
235 [label="X[9] <= 0.7053\nmse = 1.9042\nsamples = 377\nvalue = 3.9901"] ;
231 -> 235 ;
236 [label="mse = 1.9648\nsamples = 16\nvalue = 5.6875"] ;
235 -> 236 ;
237 [label="mse = 1.7682\nsamples = 361\nvalue = 3.9148"] ;
235 -> 237 ;
238 [label="X[33] <= -0.411\nmse = 6.4396\nsamples = 107\nvalue = 4.6332"] ;
222 -> 238 ;
239 [label="X[33] <= -1.9282\nmse = 4.7905\nsamples = 91\nvalue = 4.0907"] ;
238 -> 239 ;
240 [label="X[56] <= -0.3096\nmse = 2.761\nsamples = 48\nvalue = 3.276"] ;
239 -> 240 ;
241 [label="mse = 0.7417\nsamples = 18\nvalue = 1.9306"] ;
240 -> 241 ;
242 [label="mse = 2.2347\nsamples = 30\nvalue = 4.0833"] ;
240 -> 242 ;
243 [label="X[41] <= -0.3401\nmse = 5.4884\nsamples = 43\nvalue = 5.0"] ;
239 -> 243 ;
244 [label="mse = 4.6939\nsamples = 19\nvalue = 6.2368"] ;
243 -> 244 ;
245 [label="mse = 3.9475\nsamples = 24\nvalue = 4.0208"] ;
243 -> 245 ;
246 [label="X[20] <= 1.4586\nmse = 4.624\nsamples = 16\nvalue = 7.7188"] ;
238 -> 246 ;
247 [label="X[19] <= -0.0753\nmse = 2.9956\nsamples = 15\nvalue = 8.0667"] ;
246 -> 247 ;
248 [label="mse = 1.0\nsamples = 2\nvalue = 5.0"] ;
247 -> 248 ;
249 [label="mse = 1.6331\nsamples = 13\nvalue = 8.5385"] ;
247 -> 249 ;
250 [label="mse = 0.0\nsamples = 1\nvalue = 2.5"] ;
246 -> 250 ;
251 [label="X[13] <= -1.29\nmse = 6.3629\nsamples = 182\nvalue = 5.217"] ;
189 -> 251 ;
252 [label="X[43] <= -0.8648\nmse = 4.892\nsamples = 136\nvalue = 4.5772"] ;
251 -> 252 ;
253 [label="X[62] <= -0.3335\nmse = 3.712\nsamples = 121\nvalue = 4.2789"] ;
252 -> 253 ;
254 [label="X[53] <= -1.0851\nmse = 4.425\nsamples = 39\nvalue = 5.1538"] ;
253 -> 254 ;
255 [label="X[21] <= 0.2284\nmse = 3.0164\nsamples = 34\nvalue = 4.7059"] ;
254 -> 255 ;
256 [label="mse = 1.9209\nsamples = 29\nvalue = 4.3103"] ;
255 -> 256 ;
257 [label="mse = 3.2\nsamples = 5\nvalue = 7.0"] ;
255 -> 257 ;
258 [label="X[0] <= 0.5935\nmse = 3.36\nsamples = 5\nvalue = 8.2"] ;
254 -> 258 ;
259 [label="mse = 1.0\nsamples = 4\nvalue = 9.0"] ;
258 -> 259 ;
260 [label="mse = 0.0\nsamples = 1\nvalue = 5.0"] ;
258 -> 260 ;
261 [label="X[46] <= -1.6236\nmse = 2.8356\nsamples = 82\nvalue = 3.8628"] ;
253 -> 261 ;
262 [label="mse = 0.0\nsamples = 1\nvalue = 10.0"] ;
261 -> 262 ;
263 [label="X[12] <= -0.8434\nmse = 2.3999\nsamples = 81\nvalue = 3.787"] ;
261 -> 263 ;
264 [label="mse = 0.0\nsamples = 1\nvalue = 10.0"] ;
263 -> 264 ;
265 [label="mse = 1.9413\nsamples = 80\nvalue = 3.7094"] ;
263 -> 265 ;
266 [label="X[59] <= 0.6422\nmse = 7.9039\nsamples = 15\nvalue = 6.9833"] ;
252 -> 266 ;
267 [label="X[54] <= 1.211\nmse = 3.1753\nsamples = 6\nvalue = 3.9583"] ;
266 -> 267 ;
268 [label="X[55] <= -1.1296\nmse = 1.5\nsamples = 4\nvalue = 5.0"] ;
267 -> 268 ;
269 [label="mse = 0.2222\nsamples = 3\nvalue = 4.3333"] ;
268 -> 269 ;
270 [label="mse = 0.0\nsamples = 1\nvalue = 7.0"] ;
268 -> 270 ;
271 [label="X[55] <= -0.9517\nmse = 0.0156\nsamples = 2\nvalue = 1.875"] ;
267 -> 271 ;
272 [label="mse = 0.0\nsamples = 1\nvalue = 1.75"] ;
271 -> 272 ;
273 [label="mse = 0.0\nsamples = 1\nvalue = 2.0"] ;
271 -> 273 ;
274 [label="X[56] <= 0.5563\nmse = 0.8889\nsamples = 9\nvalue = 9.0"] ;
266 -> 274 ;
275 [label="X[22] <= 0.814\nmse = 0.2449\nsamples = 7\nvalue = 9.4286"] ;
274 -> 275 ;
276 [label="mse = 0.0\nsamples = 3\nvalue = 10.0"] ;
275 -> 276 ;
277 [label="mse = 0.0\nsamples = 4\nvalue = 9.0"] ;
275 -> 277 ;
278 [label="X[67] <= -0.8888\nmse = 0.25\nsamples = 2\nvalue = 7.5"] ;
274 -> 278 ;
279 [label="mse = 0.0\nsamples = 1\nvalue = 8.0"] ;
278 -> 279 ;
280 [label="mse = 0.0\nsamples = 1\nvalue = 7.0"] ;
278 -> 280 ;
281 [label="X[8] <= -1.2473\nmse = 5.923\nsamples = 46\nvalue = 7.1087"] ;
251 -> 281 ;
282 [label="X[33] <= -2.2127\nmse = 3.5393\nsamples = 22\nvalue = 8.2273"] ;
281 -> 282 ;
283 [label="X[45] <= -1.2418\nmse = 0.4898\nsamples = 7\nvalue = 9.7143"] ;
282 -> 283 ;
284 [label="mse = 0.0\nsamples = 1\nvalue = 8.0"] ;
283 -> 284 ;
285 [label="mse = 0.0\nsamples = 6\nvalue = 10.0"] ;
283 -> 285 ;
286 [label="X[52] <= -1.2421\nmse = 3.4489\nsamples = 15\nvalue = 7.5333"] ;
282 -> 286 ;
287 [label="X[5] <= 0.5643\nmse = 0.6667\nsamples = 3\nvalue = 5.0"] ;
286 -> 287 ;
288 [label="mse = 0.25\nsamples = 2\nvalue = 5.5"] ;
287 -> 288 ;
289 [label="mse = 0.0\nsamples = 1\nvalue = 4.0"] ;
287 -> 289 ;
290 [label="X[36] <= 0.5211\nmse = 2.1389\nsamples = 12\nvalue = 8.1667"] ;
286 -> 290 ;
291 [label="mse = 1.358\nsamples = 9\nvalue = 7.5556"] ;
290 -> 291 ;
292 [label="mse = 0.0\nsamples = 3\nvalue = 10.0"] ;
290 -> 292 ;
293 [label="X[51] <= -1.0252\nmse = 5.9097\nsamples = 24\nvalue = 6.0833"] ;
281 -> 293 ;
294 [label="X[28] <= 0.2524\nmse = 3.76\nsamples = 5\nvalue = 8.8"] ;
293 -> 294 ;
295 [label="X[27] <= -0.9656\nmse = 0.1875\nsamples = 4\nvalue = 9.75"] ;
294 -> 295 ;
296 [label="mse = 0.0\nsamples = 1\nvalue = 9.0"] ;
295 -> 296 ;
297 [label="mse = 0.0\nsamples = 3\nvalue = 10.0"] ;
295 -> 297 ;
298 [label="mse = 0.0\nsamples = 1\nvalue = 5.0"] ;
294 -> 298 ;
299 [label="X[10] <= 1.2573\nmse = 4.0222\nsamples = 19\nvalue = 5.3684"] ;
293 -> 299 ;
300 [label="X[58] <= 0.8421\nmse = 2.9877\nsamples = 18\nvalue = 5.1111"] ;
299 -> 300 ;
301 [label="mse = 1.6747\nsamples = 17\nvalue = 4.8235"] ;
300 -> 301 ;
302 [label="mse = 0.0\nsamples = 1\nvalue = 10.0"] ;
300 -> 302 ;
303 [label="mse = 0.0\nsamples = 1\nvalue = 10.0"] ;
299 -> 303 ;
304 [label="X[3] <= 0.2896\nmse = 4.2355\nsamples = 1409\nvalue = 4.9161"] ;
188 -> 304 ;
305 [label="X[55] <= 0.1156\nmse = 3.6722\nsamples = 1277\nvalue = 4.761"] ;
304 -> 305 ;
306 [label="X[34] <= -0.5658\nmse = 3.7535\nsamples = 719\nvalue = 4.3856"] ;
305 -> 306 ;
307 [label="X[35] <= -2.4741\nmse = 2.3235\nsamples = 155\nvalue = 5.1903"] ;
306 -> 307 ;
308 [label="X[6] <= -2.5329\nmse = 3.102\nsamples = 7\nvalue = 8.4286"] ;
307 -> 308 ;
309 [label="X[42] <= -0.2578\nmse = 1.0\nsamples = 2\nvalue = 6.0"] ;
308 -> 309 ;
310 [label="mse = 0.0\nsamples = 1\nvalue = 5.0"] ;
309 -> 310 ;
311 [label="mse = 0.0\nsamples = 1\nvalue = 7.0"] ;
309 -> 311 ;
312 [label="X[33] <= -0.7903\nmse = 0.64\nsamples = 5\nvalue = 9.4"] ;
308 -> 312 ;
313 [label="mse = 0.25\nsamples = 2\nvalue = 8.5"] ;
312 -> 313 ;
314 [label="mse = 0.0\nsamples = 3\nvalue = 10.0"] ;
312 -> 314 ;
315 [label="X[33] <= -1.1696\nmse = 1.7672\nsamples = 148\nvalue = 5.0372"] ;
307 -> 315 ;
316 [label="X[48] <= -0.0435\nmse = 1.1237\nsamples = 96\nvalue = 4.6198"] ;
315 -> 316 ;
317 [label="mse = 1.003\nsamples = 41\nvalue = 5.1463"] ;
316 -> 317 ;
318 [label="mse = 0.8529\nsamples = 55\nvalue = 4.2273"] ;
316 -> 318 ;
319 [label="X[3] <= -0.9478\nmse = 2.0399\nsamples = 52\nvalue = 5.8077"] ;
315 -> 319 ;
320 [label="mse = 1.5302\nsamples = 49\nvalue = 5.9796"] ;
319 -> 320 ;
321 [label="mse = 2.0\nsamples = 3\nvalue = 3.0"] ;
319 -> 321 ;
322 [label="X[11] <= -0.2407\nmse = 3.9197\nsamples = 564\nvalue = 4.1645"] ;
306 -> 322 ;
323 [label="X[43] <= -1.6678\nmse = 4.5802\nsamples = 181\nvalue = 4.826"] ;
322 -> 323 ;
324 [label="X[11] <= -2.4675\nmse = 3.7007\nsamples = 77\nvalue = 4.0552"] ;
323 -> 324 ;
325 [label="mse = 9.9648\nsamples = 8\nvalue = 6.4375"] ;
324 -> 325 ;
326 [label="mse = 2.2401\nsamples = 69\nvalue = 3.779"] ;
324 -> 326 ;
327 [label="X[2] <= 0.8034\nmse = 4.4659\nsamples = 104\nvalue = 5.3966"] ;
323 -> 327 ;
328 [label="mse = 3.4656\nsamples = 73\nvalue = 4.8938"] ;
327 -> 328 ;
329 [label="mse = 4.8241\nsamples = 31\nvalue = 6.5806"] ;
327 -> 329 ;
330 [label="X[48] <= 1.1877\nmse = 3.3029\nsamples = 383\nvalue = 3.8518"] ;
322 -> 330 ;
331 [label="X[2] <= 2.0372\nmse = 3.2847\nsamples = 365\nvalue = 3.9288"] ;
330 -> 331 ;
332 [label="mse = 3.1049\nsamples = 348\nvalue = 4.0108"] ;
331 -> 332 ;
333 [label="mse = 4.0074\nsamples = 17\nvalue = 2.25"] ;
331 -> 333 ;
334 [label="X[11] <= 0.3811\nmse = 1.1198\nsamples = 18\nvalue = 2.2917"] ;
330 -> 334 ;
335 [label="mse = 0.64\nsamples = 5\nvalue = 3.6"] ;
334 -> 335 ;
336 [label="mse = 0.3928\nsamples = 13\nvalue = 1.7885"] ;
334 -> 336 ;
337 [label="X[69] <= -1.5066\nmse = 3.1519\nsamples = 558\nvalue = 5.2446"] ;
305 -> 337 ;
338 [label="X[49] <= 1.2508\nmse = 2.7359\nsamples = 323\nvalue = 4.8491"] ;
337 -> 338 ;
339 [label="X[33] <= -2.2127\nmse = 2.7836\nsamples = 110\nvalue = 5.4773"] ;
338 -> 339 ;
340 [label="X[54] <= 0.5663\nmse = 0.8824\nsamples = 31\nvalue = 4.6129"] ;
339 -> 340 ;
341 [label="mse = 0.5536\nsamples = 25\nvalue = 4.92"] ;
340 -> 341 ;
342 [label="mse = 0.2222\nsamples = 6\nvalue = 3.3333"] ;
340 -> 342 ;
343 [label="X[2] <= 0.7883\nmse = 3.1214\nsamples = 79\nvalue = 5.8165"] ;
339 -> 343 ;
344 [label="mse = 2.9073\nsamples = 74\nvalue = 5.6689"] ;
343 -> 344 ;
345 [label="mse = 1.2\nsamples = 5\nvalue = 8.0"] ;
343 -> 345 ;
346 [label="X[32] <= -1.6431\nmse = 2.4023\nsamples = 213\nvalue = 4.5246"] ;
338 -> 346 ;
347 [label="X[64] <= 0.4323\nmse = 3.25\nsamples = 8\nvalue = 7.0"] ;
346 -> 347 ;
348 [label="mse = 0.3333\nsamples = 6\nvalue = 6.0"] ;
347 -> 348 ;
349 [label="mse = 0.0\nsamples = 2\nvalue = 10.0"] ;
347 -> 349 ;
350 [label="X[11] <= 0.7462\nmse = 2.1207\nsamples = 205\nvalue = 4.428"] ;
346 -> 350 ;
351 [label="mse = 1.9879\nsamples = 186\nvalue = 4.5551"] ;
350 -> 351 ;
352 [label="mse = 1.7161\nsamples = 19\nvalue = 3.1842"] ;
350 -> 352 ;
353 [label="X[59] <= 1.8126\nmse = 3.2129\nsamples = 235\nvalue = 5.7883"] ;
337 -> 353 ;
354 [label="X[32] <= 0.6537\nmse = 2.791\nsamples = 214\nvalue = 5.9322"] ;
353 -> 354 ;
355 [label="X[1] <= 1.3947\nmse = 2.4838\nsamples = 201\nvalue = 5.8308"] ;
354 -> 355 ;
356 [label="mse = 2.3562\nsamples = 197\nvalue = 5.8858"] ;
355 -> 356 ;
357 [label="mse = 1.2969\nsamples = 4\nvalue = 3.125"] ;
355 -> 357 ;
358 [label="X[14] <= 0.3465\nmse = 4.9231\nsamples = 13\nvalue = 7.5"] ;
354 -> 358 ;
359 [label="mse = 2.1667\nsamples = 3\nvalue = 4.5"] ;
358 -> 359 ;
360 [label="mse = 2.24\nsamples = 10\nvalue = 8.4"] ;
358 -> 360 ;
361 [label="X[21] <= -0.1236\nmse = 5.1497\nsamples = 21\nvalue = 4.3214"] ;
353 -> 361 ;
362 [label="mse = 0.0\nsamples = 4\nvalue = 7.0"] ;
361 -> 362 ;
363 [label="X[10] <= -1.225\nmse = 4.276\nsamples = 17\nvalue = 3.6912"] ;
361 -> 363 ;
364 [label="mse = 0.5\nsamples = 4\nvalue = 6.0"] ;
363 -> 364 ;
365 [label="mse = 3.2929\nsamples = 13\nvalue = 2.9808"] ;
363 -> 365 ;
366 [label="X[51] <= 0.4913\nmse = 7.2004\nsamples = 132\nvalue = 6.4167"] ;
304 -> 366 ;
367 [label="X[29] <= 1.0076\nmse = 5.9954\nsamples = 93\nvalue = 7.1344"] ;
366 -> 367 ;
368 [label="X[14] <= 0.649\nmse = 4.0701\nsamples = 34\nvalue = 8.4412"] ;
367 -> 368 ;
369 [label="X[42] <= -1.531\nmse = 1.25\nsamples = 18\nvalue = 9.5"] ;
368 -> 369 ;
370 [label="mse = 0.0\nsamples = 1\nvalue = 6.0"] ;
369 -> 370 ;
371 [label="X[32] <= 1.2484\nmse = 0.5606\nsamples = 17\nvalue = 9.7059"] ;
369 -> 371 ;
372 [label="mse = 0.0\nsamples = 12\nvalue = 10.0"] ;
371 -> 372 ;
373 [label="mse = 1.2\nsamples = 5\nvalue = 9.0"] ;
371 -> 373 ;
374 [label="X[69] <= -1.5066\nmse = 4.5625\nsamples = 16\nvalue = 7.25"] ;
368 -> 374 ;
375 [label="X[13] <= -1.6541\nmse = 1.2344\nsamples = 8\nvalue = 5.625"] ;
374 -> 375 ;
376 [label="mse = 0.0\nsamples = 3\nvalue = 7.0"] ;
375 -> 376 ;
377 [label="mse = 0.16\nsamples = 5\nvalue = 4.8"] ;
375 -> 377 ;
378 [label="X[32] <= -0.6224\nmse = 2.6094\nsamples = 8\nvalue = 8.875"] ;
374 -> 378 ;
379 [label="mse = 0.0\nsamples = 1\nvalue = 5.0"] ;
378 -> 379 ;
380 [label="mse = 0.5306\nsamples = 7\nvalue = 9.4286"] ;
378 -> 380 ;
381 [label="X[46] <= 0.747\nmse = 5.5537\nsamples = 59\nvalue = 6.3814"] ;
367 -> 381 ;
382 [label="X[13] <= -0.1976\nmse = 3.1925\nsamples = 31\nvalue = 4.9677"] ;
381 -> 382 ;
383 [label="X[32] <= -0.5898\nmse = 1.5344\nsamples = 28\nvalue = 4.5357"] ;
382 -> 383 ;
384 [label="mse = 0.6914\nsamples = 9\nvalue = 3.4444"] ;
383 -> 384 ;
385 [label="mse = 1.1025\nsamples = 19\nvalue = 5.0526"] ;
383 -> 385 ;
386 [label="X[67] <= -2.3806\nmse = 0.6667\nsamples = 3\nvalue = 9.0"] ;
382 -> 386 ;
387 [label="mse = 0.0\nsamples = 1\nvalue = 8.0"] ;
386 -> 387 ;
388 [label="mse = 0.25\nsamples = 2\nvalue = 9.5"] ;
386 -> 388 ;
389 [label="X[13] <= -0.9258\nmse = 3.5061\nsamples = 28\nvalue = 7.9464"] ;
381 -> 389 ;
390 [label="X[56] <= 1.3259\nmse = 2.0756\nsamples = 23\nvalue = 8.4783"] ;
389 -> 390 ;
391 [label="mse = 1.41\nsamples = 10\nvalue = 9.3"] ;
390 -> 391 ;
392 [label="mse = 1.6686\nsamples = 13\nvalue = 7.8462"] ;
390 -> 392 ;
393 [label="X[19] <= 1.2308\nmse = 2.8\nsamples = 5\nvalue = 5.5"] ;
389 -> 393 ;
394 [label="mse = 0.6875\nsamples = 4\nvalue = 6.25"] ;
393 -> 394 ;
395 [label="mse = 0.0\nsamples = 1\nvalue = 2.5"] ;
393 -> 395 ;
396 [label="X[41] <= 0.4013\nmse = 5.9163\nsamples = 39\nvalue = 4.7051"] ;
366 -> 396 ;
397 [label="X[52] <= 0.1355\nmse = 7.9506\nsamples = 9\nvalue = 6.7222"] ;
396 -> 397 ;
398 [label="X[60] <= -1.0626\nmse = 0.1875\nsamples = 4\nvalue = 9.75"] ;
397 -> 398 ;
399 [label="mse = 0.0\nsamples = 1\nvalue = 9.0"] ;
398 -> 399 ;
400 [label="mse = 0.0\nsamples = 3\nvalue = 10.0"] ;
398 -> 400 ;
401 [label="X[23] <= -2.8285\nmse = 0.96\nsamples = 5\nvalue = 4.3"] ;
397 -> 401 ;
402 [label="mse = 0.0\nsamples = 1\nvalue = 2.5"] ;
401 -> 402 ;
403 [label="X[46] <= -0.865\nmse = 0.1875\nsamples = 4\nvalue = 4.75"] ;
401 -> 403 ;
404 [label="mse = 0.0\nsamples = 1\nvalue = 4.0"] ;
403 -> 404 ;
405 [label="mse = 0.0\nsamples = 3\nvalue = 5.0"] ;
403 -> 405 ;
406 [label="X[48] <= -2.5288\nmse = 3.7192\nsamples = 30\nvalue = 4.1"] ;
396 -> 406 ;
407 [label="mse = 0.0\nsamples = 1\nvalue = 10.0"] ;
406 -> 407 ;
408 [label="X[15] <= 1.1015\nmse = 2.6057\nsamples = 29\nvalue = 3.8966"] ;
406 -> 408 ;
409 [label="X[7] <= -0.765\nmse = 1.9583\nsamples = 27\nvalue = 3.6667"] ;
408 -> 409 ;
410 [label="mse = 1.5727\nsamples = 17\nvalue = 4.2794"] ;
409 -> 410 ;
411 [label="mse = 0.8906\nsamples = 10\nvalue = 2.625"] ;
409 -> 411 ;
412 [label="X[43] <= -0.9652\nmse = 1.0\nsamples = 2\nvalue = 7.0"] ;
408 -> 412 ;
413 [label="mse = 0.0\nsamples = 1\nvalue = 6.0"] ;
412 -> 413 ;
414 [label="mse = 0.0\nsamples = 1\nvalue = 8.0"] ;
412 -> 414 ;
415 [label="X[23] <= -1.4965\nmse = 5.6542\nsamples = 14372\nvalue = 5.5542"] ;
1 -> 415 ;
416 [label="X[69] <= -1.9435\nmse = 4.1366\nsamples = 7482\nvalue = 4.8337"] ;
415 -> 416 ;
417 [label="X[69] <= -2.9267\nmse = 4.124\nsamples = 3736\nvalue = 4.0813"] ;
416 -> 417 ;
418 [label="X[35] <= 0.3714\nmse = 5.1361\nsamples = 754\nvalue = 3.1217"] ;
417 -> 418 ;
419 [label="X[9] <= 0.3469\nmse = 4.3899\nsamples = 669\nvalue = 2.8972"] ;
418 -> 419 ;
420 [label="X[29] <= 1.0379\nmse = 9.0293\nsamples = 80\nvalue = 4.5438"] ;
419 -> 420 ;
421 [label="X[29] <= 0.5542\nmse = 7.4818\nsamples = 71\nvalue = 4.1056"] ;
420 -> 421 ;
422 [label="X[33] <= -2.9239\nmse = 8.1469\nsamples = 35\nvalue = 5.2143"] ;
421 -> 422 ;
423 [label="mse = 0.5556\nsamples = 6\nvalue = 1.8333"] ;
422 -> 423 ;
424 [label="mse = 6.8633\nsamples = 29\nvalue = 5.9138"] ;
422 -> 424 ;
425 [label="X[37] <= -0.0015\nmse = 4.4784\nsamples = 36\nvalue = 3.0278"] ;
421 -> 425 ;
426 [label="mse = 3.4814\nsamples = 34\nvalue = 2.7647"] ;
425 -> 426 ;
427 [label="mse = 0.25\nsamples = 2\nvalue = 7.5"] ;
425 -> 427 ;
428 [label="X[12] <= 1.3412\nmse = 7.7778\nsamples = 9\nvalue = 8.0"] ;
420 -> 428 ;
429 [label="X[2] <= 1.2502\nmse = 2.8889\nsamples = 3\nvalue = 4.3333"] ;
428 -> 429 ;
430 [label="mse = 0.25\nsamples = 2\nvalue = 5.5"] ;
429 -> 430 ;
431 [label="mse = 0.0\nsamples = 1\nvalue = 2.0"] ;
429 -> 431 ;
432 [label="X[8] <= 0.5093\nmse = 0.1389\nsamples = 6\nvalue = 9.8333"] ;
428 -> 432 ;
433 [label="mse = 0.0\nsamples = 5\nvalue = 10.0"] ;
432 -> 433 ;
434 [label="mse = 0.0\nsamples = 1\nvalue = 9.0"] ;
432 -> 434 ;
435 [label="X[69] <= -3.5275\nmse = 3.3416\nsamples = 589\nvalue = 2.6736"] ;
419 -> 435 ;
436 [label="X[11] <= -1.7564\nmse = 2.9114\nsamples = 74\nvalue = 1.4291"] ;
435 -> 436 ;
437 [label="mse = 0.0\nsamples = 1\nvalue = 10.0"] ;
436 -> 437 ;
438 [label="X[42] <= -0.64\nmse = 1.9311\nsamples = 73\nvalue = 1.3116"] ;
436 -> 438 ;
439 [label="mse = 8.3003\nsamples = 6\nvalue = 3.7083"] ;
438 -> 439 ;
440 [label="mse = 0.8003\nsamples = 67\nvalue = 1.097"] ;
438 -> 440 ;
441 [label="X[21] <= -2.5286\nmse = 3.1489\nsamples = 515\nvalue = 2.8524"] ;
435 -> 441 ;
442 [label="X[41] <= -3.1502\nmse = 0.25\nsamples = 2\nvalue = 9.5"] ;
441 -> 442 ;
443 [label="mse = 0.0\nsamples = 1\nvalue = 10.0"] ;
442 -> 443 ;
444 [label="mse = 0.0\nsamples = 1\nvalue = 9.0"] ;
442 -> 444 ;
445 [label="X[19] <= 1.2011\nmse = 2.9872\nsamples = 513\nvalue = 2.8265"] ;
441 -> 445 ;
446 [label="mse = 3.5354\nsamples = 379\nvalue = 3.0521"] ;
445 -> 446 ;
447 [label="mse = 0.8857\nsamples = 134\nvalue = 2.1884"] ;
445 -> 447 ;
448 [label="X[48] <= -0.8644\nmse = 7.4919\nsamples = 85\nvalue = 4.8882"] ;
418 -> 448 ;
449 [label="X[52] <= -0.7788\nmse = 6.9375\nsamples = 16\nvalue = 7.75"] ;
448 -> 449 ;
450 [label="X[44] <= -0.05\nmse = 6.3594\nsamples = 8\nvalue = 5.875"] ;
449 -> 450 ;
451 [label="mse = 0.0\nsamples = 2\nvalue = 10.0"] ;
450 -> 451 ;
452 [label="X[53] <= -2.4186\nmse = 0.9167\nsamples = 6\nvalue = 4.5"] ;
450 -> 452 ;
453 [label="mse = 0.2222\nsamples = 3\nvalue = 3.6667"] ;
452 -> 453 ;
454 [label="mse = 0.2222\nsamples = 3\nvalue = 5.3333"] ;
452 -> 454 ;
455 [label="X[54] <= 0.5663\nmse = 0.4844\nsamples = 8\nvalue = 9.625"] ;
449 -> 455 ;
456 [label="X[57] <= -0.4701\nmse = 0.25\nsamples = 2\nvalue = 8.5"] ;
455 -> 456 ;
457 [label="mse = 0.0\nsamples = 1\nvalue = 9.0"] ;
456 -> 457 ;
458 [label="mse = 0.0\nsamples = 1\nvalue = 8.0"] ;
456 -> 458 ;
459 [label="mse = 0.0\nsamples = 6\nvalue = 10.0"] ;
455 -> 459 ;
460 [label="X[51] <= -0.8411\nmse = 5.2811\nsamples = 69\nvalue = 4.2246"] ;
448 -> 460 ;
461 [label="X[52] <= 1.1582\nmse = 4.8056\nsamples = 6\nvalue = 8.1667"] ;
460 -> 461 ;
462 [label="X[11] <= 0.3614\nmse = 0.75\nsamples = 4\nvalue = 9.5"] ;
461 -> 462 ;
463 [label="mse = 0.0\nsamples = 3\nvalue = 10.0"] ;
462 -> 463 ;
464 [label="mse = 0.0\nsamples = 1\nvalue = 8.0"] ;
462 -> 464 ;
465 [label="X[21] <= 0.3719\nmse = 2.25\nsamples = 2\nvalue = 5.5"] ;
461 -> 465 ;
466 [label="mse = 0.0\nsamples = 1\nvalue = 4.0"] ;
465 -> 466 ;
467 [label="mse = 0.0\nsamples = 1\nvalue = 7.0"] ;
465 -> 467 ;
468 [label="X[8] <= -1.1104\nmse = 3.7054\nsamples = 63\nvalue = 3.8492"] ;
460 -> 468 ;
469 [label="mse = 0.0\nsamples = 1\nvalue = 10.0"] ;
468 -> 469 ;
470 [label="X[3] <= -2.1852\nmse = 3.1452\nsamples = 62\nvalue = 3.75"] ;
468 -> 470 ;
471 [label="mse = 1.3347\nsamples = 11\nvalue = 5.2273"] ;
470 -> 471 ;
472 [label="mse = 2.9634\nsamples = 51\nvalue = 3.4314"] ;
470 -> 472 ;
473 [label="X[3] <= -0.1229\nmse = 3.5763\nsamples = 2982\nvalue = 4.3239"] ;
417 -> 473 ;
474 [label="X[45] <= -0.0813\nmse = 2.7502\nsamples = 2545\nvalue = 4.1396"] ;
473 -> 474 ;
475 [label="X[69] <= -2.3805\nmse = 2.3289\nsamples = 1784\nvalue = 3.9453"] ;
474 -> 475 ;
476 [label="X[43] <= -1.6678\nmse = 2.6382\nsamples = 827\nvalue = 3.6115"] ;
475 -> 476 ;
477 [label="X[53] <= -2.752\nmse = 2.3191\nsamples = 712\nvalue = 3.4803"] ;
476 -> 477 ;
478 [label="mse = 2.3083\nsamples = 210\nvalue = 3.0881"] ;
477 -> 478 ;
479 [label="mse = 2.2324\nsamples = 502\nvalue = 3.6444"] ;
477 -> 479 ;
480 [label="X[53] <= -0.196\nmse = 3.8469\nsamples = 115\nvalue = 4.4239"] ;
476 -> 480 ;
481 [label="mse = 3.2166\nsamples = 108\nvalue = 4.2292"] ;
480 -> 481 ;
482 [label="mse = 3.9592\nsamples = 7\nvalue = 7.4286"] ;
480 -> 482 ;
483 [label="X[3] <= -0.9478\nmse = 1.8822\nsamples = 957\nvalue = 4.2338"] ;
475 -> 483 ;
484 [label="X[62] <= -1.8153\nmse = 1.4959\nsamples = 852\nvalue = 4.1303"] ;
483 -> 484 ;
485 [label="mse = 4.6225\nsamples = 10\nvalue = 6.45"] ;
484 -> 485 ;
486 [label="mse = 1.3941\nsamples = 842\nvalue = 4.1027"] ;
484 -> 486 ;
487 [label="X[33] <= -0.411\nmse = 4.2237\nsamples = 105\nvalue = 5.0738"] ;
483 -> 487 ;
488 [label="mse = 3.1065\nsamples = 85\nvalue = 4.6088"] ;
487 -> 488 ;
489 [label="mse = 4.1475\nsamples = 20\nvalue = 7.05"] ;
487 -> 489 ;
490 [label="X[51] <= -0.1684\nmse = 3.4421\nsamples = 761\nvalue = 4.5949"] ;
474 -> 490 ;
491 [label="X[13] <= -0.9258\nmse = 4.5842\nsamples = 150\nvalue = 5.71"] ;
490 -> 491 ;
492 [label="X[68] <= 1.559\nmse = 3.9092\nsamples = 139\nvalue = 5.4712"] ;
491 -> 492 ;
493 [label="mse = 3.3693\nsamples = 121\nvalue = 5.1942"] ;
492 -> 493 ;
494 [label="mse = 3.5556\nsamples = 18\nvalue = 7.3333"] ;
492 -> 494 ;
495 [label="X[50] <= 0.8548\nmse = 3.2893\nsamples = 11\nvalue = 8.7273"] ;
491 -> 495 ;
496 [label="mse = 0.6914\nsamples = 9\nvalue = 9.4444"] ;
495 -> 496 ;
497 [label="mse = 2.25\nsamples = 2\nvalue = 5.5"] ;
495 -> 497 ;
498 [label="X[53] <= 0.2485\nmse = 2.7816\nsamples = 611\nvalue = 4.3212"] ;
490 -> 498 ;
499 [label="X[33] <= -2.4024\nmse = 2.5674\nsamples = 589\nvalue = 4.2602"] ;
498 -> 499 ;
500 [label="mse = 2.0342\nsamples = 157\nvalue = 3.7468"] ;
499 -> 500 ;
501 [label="mse = 2.6306\nsamples = 432\nvalue = 4.4468"] ;
499 -> 501 ;
502 [label="X[1] <= 0.5474\nmse = 5.7479\nsamples = 22\nvalue = 5.9545"] ;
498 -> 502 ;
503 [label="mse = 3.8395\nsamples = 18\nvalue = 5.2778"] ;
502 -> 503 ;
504 [label="mse = 3.0\nsamples = 4\nvalue = 9.0"] ;
502 -> 504 ;
505 [label="X[43] <= -0.4633\nmse = 7.0366\nsamples = 437\nvalue = 5.3976"] ;
473 -> 505 ;
506 [label="X[44] <= 1.1923\nmse = 6.3904\nsamples = 403\nvalue = 5.1632"] ;
505 -> 506 ;
507 [label="X[51] <= -0.6149\nmse = 7.2238\nsamples = 229\nvalue = 5.7544"] ;
506 -> 507 ;
508 [label="X[28] <= -1.3901\nmse = 7.1667\nsamples = 63\nvalue = 7.0"] ;
507 -> 508 ;
509 [label="mse = 5.2867\nsamples = 19\nvalue = 8.5526"] ;
508 -> 509 ;
510 [label="mse = 6.488\nsamples = 44\nvalue = 6.3295"] ;
508 -> 510 ;
511 [label="X[36] <= -0.8869\nmse = 6.4331\nsamples = 166\nvalue = 5.2816"] ;
507 -> 511 ;
512 [label="mse = 4.4637\nsamples = 17\nvalue = 7.3529"] ;
511 -> 512 ;
513 [label="mse = 6.1125\nsamples = 149\nvalue = 5.0453"] ;
511 -> 513 ;
514 [label="X[7] <= -1.0038\nmse = 4.2282\nsamples = 174\nvalue = 4.3851"] ;
506 -> 514 ;
515 [label="X[32] <= -0.0982\nmse = 6.4541\nsamples = 14\nvalue = 6.7857"] ;
514 -> 515 ;
516 [label="mse = 5.3333\nsamples = 9\nvalue = 8.0"] ;
515 -> 516 ;
517 [label="mse = 1.04\nsamples = 5\nvalue = 4.6"] ;
515 -> 517 ;
518 [label="X[33] <= -0.7903\nmse = 3.485\nsamples = 160\nvalue = 4.175"] ;
514 -> 518 ;
519 [label="mse = 1.8552\nsamples = 109\nvalue = 3.7202"] ;
518 -> 519 ;
520 [label="mse = 5.5813\nsamples = 51\nvalue = 5.1471"] ;
518 -> 520 ;
521 [label="X[21] <= 0.3375\nmse = 6.3218\nsamples = 34\nvalue = 8.1765"] ;
505 -> 521 ;
522 [label="X[11] <= 0.3424\nmse = 7.1264\nsamples = 25\nvalue = 7.56"] ;
521 -> 522 ;
523 [label="X[19] <= 1.2011\nmse = 3.7687\nsamples = 21\nvalue = 8.4286"] ;
522 -> 523 ;
524 [label="mse = 2.173\nsamples = 17\nvalue = 9.0588"] ;
523 -> 524 ;
525 [label="mse = 1.6875\nsamples = 4\nvalue = 5.75"] ;
523 -> 525 ;
526 [label="mse = 0.0\nsamples = 4\nvalue = 3.0"] ;
522 -> 526 ;
527 [label="X[46] <= -0.2486\nmse = 0.0988\nsamples = 9\nvalue = 9.8889"] ;
521 -> 527 ;
528 [label="mse = 0.0\nsamples = 1\nvalue = 9.0"] ;
527 -> 528 ;
529 [label="mse = 0.0\nsamples = 8\nvalue = 10.0"] ;
527 -> 529 ;
530 [label="X[69] <= -1.5066\nmse = 3.0217\nsamples = 3746\nvalue = 5.584"] ;
416 -> 530 ;
531 [label="X[3] <= -0.1229\nmse = 2.8188\nsamples = 2204\nvalue = 5.301"] ;
530 -> 531 ;
532 [label="X[51] <= -0.1585\nmse = 2.3736\nsamples = 1933\nvalue = 5.1849"] ;
531 -> 532 ;
533 [label="X[33] <= -0.7903\nmse = 2.2295\nsamples = 710\nvalue = 5.456"] ;
532 -> 533 ;
534 [label="X[31] <= 1.1595\nmse = 1.8103\nsamples = 573\nvalue = 5.3041"] ;
533 -> 534 ;
535 [label="X[44] <= 1.1923\nmse = 1.7392\nsamples = 571\nvalue = 5.2877"] ;
534 -> 535 ;
536 [label="mse = 1.7965\nsamples = 347\nvalue = 5.4827"] ;
535 -> 536 ;
537 [label="mse = 1.5001\nsamples = 224\nvalue = 4.9855"] ;
535 -> 537 ;
538 [label="mse = 0.0\nsamples = 2\nvalue = 10.0"] ;
534 -> 538 ;
539 [label="X[41] <= 1.0233\nmse = 3.4826\nsamples = 137\nvalue = 6.0912"] ;
533 -> 539 ;
540 [label="X[32] <= 2.0147\nmse = 3.1303\nsamples = 132\nvalue = 5.9811"] ;
539 -> 540 ;
541 [label="mse = 2.9309\nsamples = 130\nvalue = 6.0423"] ;
540 -> 541 ;
542 [label="mse = 0.0\nsamples = 2\nvalue = 2.0"] ;
540 -> 542 ;
543 [label="X[0] <= 0.5511\nmse = 4.0\nsamples = 5\nvalue = 9.0"] ;
539 -> 543 ;
544 [label="mse = 0.0\nsamples = 4\nvalue = 10.0"] ;
543 -> 544 ;
545 [label="mse = 0.0\nsamples = 1\nvalue = 5.0"] ;
543 -> 545 ;
546 [label="X[35] <= -0.1793\nmse = 2.3899\nsamples = 1223\nvalue = 5.0276"] ;
532 -> 546 ;
547 [label="X[22] <= 2.1747\nmse = 1.6378\nsamples = 658\nvalue = 4.8047"] ;
546 -> 547 ;
548 [label="X[58] <= -1.3175\nmse = 1.5668\nsamples = 653\nvalue = 4.7833"] ;
547 -> 548 ;
549 [label="mse = 2.1541\nsamples = 57\nvalue = 4.0219"] ;
548 -> 549 ;
550 [label="mse = 1.4498\nsamples = 596\nvalue = 4.8561"] ;
548 -> 550 ;
551 [label="X[68] <= 1.3192\nmse = 3.04\nsamples = 5\nvalue = 7.6"] ;
547 -> 551 ;
552 [label="mse = 0.25\nsamples = 2\nvalue = 9.5"] ;
551 -> 552 ;
553 [label="mse = 0.8889\nsamples = 3\nvalue = 6.3333"] ;
551 -> 553 ;
554 [label="X[49] <= 1.558\nmse = 3.1407\nsamples = 565\nvalue = 5.2872"] ;
546 -> 554 ;
555 [label="X[61] <= 1.2558\nmse = 3.0138\nsamples = 527\nvalue = 5.3885"] ;
554 -> 555 ;
556 [label="mse = 2.6145\nsamples = 431\nvalue = 5.2454"] ;
555 -> 556 ;
557 [label="mse = 4.3011\nsamples = 96\nvalue = 6.0312"] ;
555 -> 557 ;
558 [label="X[52] <= -1.4586\nmse = 2.782\nsamples = 38\nvalue = 3.8816"] ;
554 -> 558 ;
559 [label="mse = 0.0\nsamples = 1\nvalue = 10.0"] ;
558 -> 559 ;
560 [label="mse = 1.8181\nsamples = 37\nvalue = 3.7162"] ;
558 -> 560 ;
561 [label="X[21] <= -1.0371\nmse = 5.2121\nsamples = 271\nvalue = 6.1292"] ;
531 -> 561 ;
562 [label="X[11] <= -2.1477\nmse = 5.2559\nsamples = 26\nvalue = 7.8846"] ;
561 -> 562 ;
563 [label="X[24] <= 0.6423\nmse = 3.76\nsamples = 5\nvalue = 4.8"] ;
562 -> 563 ;
564 [label="X[49] <= 0.2064\nmse = 0.25\nsamples = 2\nvalue = 2.5"] ;
563 -> 564 ;
565 [label="mse = 0.0\nsamples = 1\nvalue = 2.0"] ;
564 -> 565 ;
566 [label="mse = 0.0\nsamples = 1\nvalue = 3.0"] ;
564 -> 566 ;
567 [label="X[8] <= -1.5895\nmse = 0.2222\nsamples = 3\nvalue = 6.3333"] ;
563 -> 567 ;
568 [label="mse = 0.0\nsamples = 1\nvalue = 7.0"] ;
567 -> 568 ;
569 [label="mse = 0.0\nsamples = 2\nvalue = 6.0"] ;
567 -> 569 ;
570 [label="X[22] <= -0.3731\nmse = 2.8073\nsamples = 21\nvalue = 8.619"] ;
562 -> 570 ;
571 [label="X[38] <= -1.2367\nmse = 1.25\nsamples = 4\nvalue = 6.5"] ;
570 -> 571 ;
572 [label="mse = 0.25\nsamples = 2\nvalue = 7.5"] ;
571 -> 572 ;
573 [label="mse = 0.25\nsamples = 2\nvalue = 5.5"] ;
571 -> 573 ;
574 [label="X[11] <= 0.22\nmse = 1.8685\nsamples = 17\nvalue = 9.1176"] ;
570 -> 574 ;
575 [label="mse = 0.8594\nsamples = 16\nvalue = 9.375"] ;
574 -> 575 ;
576 [label="mse = 0.0\nsamples = 1\nvalue = 5.0"] ;
574 -> 576 ;
577 [label="X[43] <= -1.2663\nmse = 4.8457\nsamples = 245\nvalue = 5.9429"] ;
561 -> 577 ;
578 [label="X[67] <= -1.0035\nmse = 4.446\nsamples = 167\nvalue = 5.5778"] ;
577 -> 578 ;
579 [label="X[30] <= -1.4263\nmse = 3.8091\nsamples = 43\nvalue = 4.4302"] ;
578 -> 579 ;
580 [label="mse = 3.6\nsamples = 5\nvalue = 8.0"] ;
579 -> 580 ;
581 [label="mse = 1.9392\nsamples = 38\nvalue = 3.9605"] ;
579 -> 581 ;
582 [label="X[53] <= -1.5296\nmse = 4.0518\nsamples = 124\nvalue = 5.9758"] ;
578 -> 582 ;
583 [label="mse = 2.9812\nsamples = 68\nvalue = 5.3382"] ;
582 -> 583 ;
584 [label="mse = 4.2589\nsamples = 56\nvalue = 6.75"] ;
582 -> 584 ;
585 [label="X[55] <= -0.7738\nmse = 4.8054\nsamples = 78\nvalue = 6.7244"] ;
577 -> 585 ;
586 [label="X[66] <= -0.9621\nmse = 1.7143\nsamples = 7\nvalue = 9.0"] ;
585 -> 586 ;
587 [label="mse = 0.0\nsamples = 1\nvalue = 6.0"] ;
586 -> 587 ;
588 [label="mse = 0.25\nsamples = 6\nvalue = 9.5"] ;
586 -> 588 ;
589 [label="X[29] <= 1.0983\nmse = 4.5493\nsamples = 71\nvalue = 6.5"] ;
585 -> 589 ;
590 [label="mse = 3.3188\nsamples = 37\nvalue = 5.7297"] ;
589 -> 590 ;
591 [label="mse = 4.54\nsamples = 34\nvalue = 7.3382"] ;
589 -> 591 ;
592 [label="X[3] <= -0.9478\nmse = 3.0336\nsamples = 1542\nvalue = 5.9885"] ;
530 -> 592 ;
593 [label="X[63] <= 0.5919\nmse = 2.5335\nsamples = 1052\nvalue = 5.7597"] ;
592 -> 593 ;
594 [label="X[37] <= -0.9677\nmse = 2.3761\nsamples = 519\nvalue = 5.9913"] ;
593 -> 594 ;
595 [label="X[43] <= -2.5712\nmse = 2.0933\nsamples = 187\nvalue = 5.516"] ;
594 -> 595 ;
596 [label="X[22] <= 0.226\nmse = 1.5165\nsamples = 11\nvalue = 3.7727"] ;
595 -> 596 ;
597 [label="mse = 0.5306\nsamples = 7\nvalue = 4.5714"] ;
596 -> 597 ;
598 [label="mse = 0.1719\nsamples = 4\nvalue = 2.375"] ;
596 -> 598 ;
599 [label="X[10] <= -0.9001\nmse = 1.9276\nsamples = 176\nvalue = 5.625"] ;
595 -> 599 ;
600 [label="mse = 1.1412\nsamples = 91\nvalue = 5.1538"] ;
599 -> 600 ;
601 [label="mse = 2.2774\nsamples = 85\nvalue = 6.1294"] ;
599 -> 601 ;
602 [label="X[13] <= -2.2458\nmse = 2.3365\nsamples = 332\nvalue = 6.259"] ;
594 -> 602 ;
603 [label="X[12] <= -0.0466\nmse = 4.4132\nsamples = 22\nvalue = 7.6364"] ;
602 -> 603 ;
604 [label="mse = 1.0617\nsamples = 9\nvalue = 9.2222"] ;
603 -> 604 ;
605 [label="mse = 3.787\nsamples = 13\nvalue = 6.5385"] ;
603 -> 605 ;
606 [label="X[20] <= 0.0673\nmse = 2.045\nsamples = 310\nvalue = 6.1613"] ;
602 -> 606 ;
607 [label="mse = 2.2198\nsamples = 220\nvalue = 6.3545"] ;
606 -> 607 ;
608 [label="mse = 1.3032\nsamples = 90\nvalue = 5.6889"] ;
606 -> 608 ;
609 [label="X[49] <= -0.7152\nmse = 2.5836\nsamples = 533\nvalue = 5.5342"] ;
593 -> 609 ;
610 [label="X[32] <= -0.74\nmse = 0.1992\nsamples = 4\nvalue = 2.4375"] ;
609 -> 610 ;
611 [label="mse = 0.0\nsamples = 1\nvalue = 1.75"] ;
610 -> 611 ;
612 [label="X[40] <= -1.2638\nmse = 0.0556\nsamples = 3\nvalue = 2.6667"] ;
610 -> 612 ;
613 [label="mse = 0.0\nsamples = 1\nvalue = 3.0"] ;
612 -> 613 ;
614 [label="mse = 0.0\nsamples = 2\nvalue = 2.5"] ;
612 -> 614 ;
615 [label="X[42] <= 1.4839\nmse = 2.5286\nsamples = 529\nvalue = 5.5577"] ;
609 -> 615 ;
616 [label="X[12] <= 1.7386\nmse = 2.4079\nsamples = 518\nvalue = 5.5965"] ;
615 -> 616 ;
617 [label="mse = 2.3319\nsamples = 514\nvalue = 5.57"] ;
616 -> 617 ;
618 [label="mse = 0.5\nsamples = 4\nvalue = 9.0"] ;
616 -> 618 ;
619 [label="X[39] <= 0.4714\nmse = 4.7893\nsamples = 11\nvalue = 3.7273"] ;
615 -> 619 ;
620 [label="mse = 2.25\nsamples = 2\nvalue = 7.5"] ;
619 -> 620 ;
621 [label="mse = 1.4877\nsamples = 9\nvalue = 2.8889"] ;
619 -> 621 ;
622 [label="X[33] <= -0.7903\nmse = 3.7539\nsamples = 490\nvalue = 6.4796"] ;
592 -> 622 ;
623 [label="X[6] <= 0.5726\nmse = 3.205\nsamples = 290\nvalue = 6.1509"] ;
622 -> 623 ;
624 [label="X[53] <= -2.4186\nmse = 2.7348\nsamples = 150\nvalue = 5.725"] ;
623 -> 624 ;
625 [label="X[12] <= 1.9795\nmse = 2.5813\nsamples = 17\nvalue = 4.1029"] ;
624 -> 625 ;
626 [label="mse = 1.5067\nsamples = 14\nvalue = 3.625"] ;
625 -> 626 ;
627 [label="mse = 1.5556\nsamples = 3\nvalue = 6.3333"] ;
625 -> 627 ;
628 [label="X[39] <= 0.9091\nmse = 2.3751\nsamples = 133\nvalue = 5.9323"] ;
624 -> 628 ;
629 [label="mse = 2.1158\nsamples = 46\nvalue = 6.7174"] ;
628 -> 629 ;
630 [label="mse = 2.0141\nsamples = 87\nvalue = 5.5172"] ;
628 -> 630 ;
631 [label="X[31] <= -0.5537\nmse = 3.3064\nsamples = 140\nvalue = 6.6071"] ;
623 -> 631 ;
632 [label="X[1] <= -0.5278\nmse = 2.213\nsamples = 13\nvalue = 8.3077"] ;
631 -> 632 ;
633 [label="mse = 0.2857\nsamples = 7\nvalue = 7.0"] ;
632 -> 633 ;
634 [label="mse = 0.1389\nsamples = 6\nvalue = 9.8333"] ;
632 -> 634 ;
635 [label="X[53] <= 0.2485\nmse = 3.092\nsamples = 127\nvalue = 6.4331"] ;
631 -> 635 ;
636 [label="mse = 2.9162\nsamples = 113\nvalue = 6.2655"] ;
635 -> 636 ;
637 [label="mse = 2.4541\nsamples = 14\nvalue = 7.7857"] ;
635 -> 637 ;
638 [label="X[41] <= 2.1734\nmse = 4.1659\nsamples = 200\nvalue = 6.9562"] ;
622 -> 638 ;
639 [label="X[32] <= 1.6366\nmse = 3.832\nsamples = 196\nvalue = 7.0344"] ;
638 -> 639 ;
640 [label="X[51] <= -0.8108\nmse = 3.673\nsamples = 181\nvalue = 6.8826"] ;
639 -> 640 ;
641 [label="mse = 2.6752\nsamples = 36\nvalue = 7.8611"] ;
640 -> 641 ;
642 [label="mse = 3.624\nsamples = 145\nvalue = 6.6397"] ;
640 -> 642 ;
643 [label="X[9] <= 0.8546\nmse = 2.1156\nsamples = 15\nvalue = 8.8667"] ;
639 -> 643 ;
644 [label="mse = 0.4132\nsamples = 11\nvalue = 9.6364"] ;
643 -> 644 ;
645 [label="mse = 0.6875\nsamples = 4\nvalue = 6.75"] ;
643 -> 645 ;
646 [label="X[22] <= 1.3848\nmse = 5.5469\nsamples = 4\nvalue = 3.125"] ;
638 -> 646 ;
647 [label="X[51] <= 2.27\nmse = 0.7222\nsamples = 3\nvalue = 1.8333"] ;
646 -> 647 ;
648 [label="mse = 0.0625\nsamples = 2\nvalue = 1.25"] ;
647 -> 648 ;
649 [label="mse = 0.0\nsamples = 1\nvalue = 3.0"] ;
647 -> 649 ;
650 [label="mse = 0.0\nsamples = 1\nvalue = 7.0"] ;
646 -> 650 ;
651 [label="X[33] <= -1.1696\nmse = 6.1261\nsamples = 6890\nvalue = 6.3367"] ;
415 -> 651 ;
652 [label="X[69] <= -2.3805\nmse = 5.832\nsamples = 3609\nvalue = 5.6951"] ;
651 -> 652 ;
653 [label="X[42] <= -0.1319\nmse = 8.8456\nsamples = 928\nvalue = 4.6436"] ;
652 -> 653 ;
654 [label="X[13] <= -0.5617\nmse = 8.8366\nsamples = 223\nvalue = 6.389"] ;
653 -> 654 ;
655 [label="X[61] <= 0.8549\nmse = 7.0886\nsamples = 138\nvalue = 5.2011"] ;
654 -> 655 ;
656 [label="X[12] <= -0.308\nmse = 6.7806\nsamples = 91\nvalue = 5.7912"] ;
655 -> 656 ;
657 [label="X[52] <= -1.715\nmse = 5.5372\nsamples = 68\nvalue = 5.1471"] ;
656 -> 657 ;
658 [label="mse = 1.6735\nsamples = 7\nvalue = 8.5714"] ;
657 -> 658 ;
659 [label="mse = 4.4805\nsamples = 61\nvalue = 4.7541"] ;
657 -> 659 ;
660 [label="X[49] <= 1.0972\nmse = 5.603\nsamples = 23\nvalue = 7.6957"] ;
656 -> 660 ;
661 [label="mse = 1.9184\nsamples = 7\nvalue = 5.2857"] ;
660 -> 661 ;
662 [label="mse = 3.5625\nsamples = 16\nvalue = 8.75"] ;
660 -> 662 ;
663 [label="X[53] <= 0.2485\nmse = 5.7054\nsamples = 47\nvalue = 4.0585"] ;
655 -> 663 ;
664 [label="X[44] <= 0.5711\nmse = 3.6138\nsamples = 43\nvalue = 3.5988"] ;
663 -> 664 ;
665 [label="mse = 3.21\nsamples = 10\nvalue = 5.7"] ;
664 -> 665 ;
666 [label="mse = 1.9929\nsamples = 33\nvalue = 2.9621"] ;
664 -> 666 ;
667 [label="X[22] <= -0.9936\nmse = 1.5\nsamples = 4\nvalue = 9.0"] ;
663 -> 667 ;
668 [label="mse = 0.0\nsamples = 1\nvalue = 7.0"] ;
667 -> 668 ;
669 [label="mse = 0.2222\nsamples = 3\nvalue = 9.6667"] ;
667 -> 669 ;
670 [label="X[23] <= -0.7353\nmse = 5.6638\nsamples = 85\nvalue = 8.3176"] ;
654 -> 670 ;
671 [label="X[42] <= -1.7606\nmse = 9.129\nsamples = 31\nvalue = 7.0"] ;
670 -> 671 ;
672 [label="X[56] <= -1.2236\nmse = 0.0556\nsamples = 3\nvalue = 2.6667"] ;
671 -> 672 ;
673 [label="mse = 0.0\nsamples = 1\nvalue = 3.0"] ;
672 -> 673 ;
674 [label="mse = 0.0\nsamples = 2\nvalue = 2.5"] ;
672 -> 674 ;
675 [label="X[17] <= 0.1794\nmse = 7.8737\nsamples = 28\nvalue = 7.4643"] ;
671 -> 675 ;
676 [label="mse = 5.7311\nsamples = 26\nvalue = 7.9038"] ;
675 -> 676 ;
677 [label="mse = 0.5625\nsamples = 2\nvalue = 1.75"] ;
675 -> 677 ;
678 [label="X[9] <= 0.4066\nmse = 2.1056\nsamples = 54\nvalue = 9.0741"] ;
670 -> 678 ;
679 [label="X[47] <= -0.3235\nmse = 0.0586\nsamples = 16\nvalue = 9.9375"] ;
678 -> 679 ;
680 [label="mse = 0.0\nsamples = 14\nvalue = 10.0"] ;
679 -> 680 ;
681 [label="mse = 0.25\nsamples = 2\nvalue = 9.5"] ;
679 -> 681 ;
682 [label="X[53] <= -3.3632\nmse = 2.5215\nsamples = 38\nvalue = 8.7105"] ;
678 -> 682 ;
683 [label="mse = 2.25\nsamples = 2\nvalue = 4.5"] ;
682 -> 683 ;
684 [label="mse = 1.4969\nsamples = 36\nvalue = 8.9444"] ;
682 -> 684 ;
685 [label="X[61] <= -0.6397\nmse = 7.5799\nsamples = 705\nvalue = 4.0915"] ;
653 -> 685 ;
686 [label="X[15] <= -0.4439\nmse = 8.5588\nsamples = 94\nvalue = 6.4814"] ;
685 -> 686 ;
687 [label="X[43] <= -2.0693\nmse = 7.4891\nsamples = 69\nvalue = 5.7428"] ;
686 -> 687 ;
688 [label="X[3] <= -0.9478\nmse = 6.7877\nsamples = 49\nvalue = 5.0663"] ;
687 -> 688 ;
689 [label="mse = 3.3937\nsamples = 19\nvalue = 3.5658"] ;
688 -> 689 ;
690 [label="mse = 6.6081\nsamples = 30\nvalue = 6.0167"] ;
688 -> 690 ;
691 [label="X[32] <= 0.8606\nmse = 5.34\nsamples = 20\nvalue = 7.4"] ;
687 -> 691 ;
692 [label="mse = 5.3554\nsamples = 11\nvalue = 6.0909"] ;
691 -> 692 ;
693 [label="mse = 0.6667\nsamples = 9\nvalue = 9.0"] ;
691 -> 693 ;
694 [label="X[19] <= 1.3198\nmse = 5.8496\nsamples = 25\nvalue = 8.52"] ;
686 -> 694 ;
695 [label="X[19] <= 0.9042\nmse = 2.7372\nsamples = 23\nvalue = 9.0435"] ;
694 -> 695 ;
696 [label="mse = 3.4844\nsamples = 8\nvalue = 7.375"] ;
695 -> 696 ;
697 [label="mse = 0.0622\nsamples = 15\nvalue = 9.9333"] ;
695 -> 697 ;
698 [label="X[3] <= -1.2056\nmse = 2.25\nsamples = 2\nvalue = 2.5"] ;
694 -> 698 ;
699 [label="mse = 0.0\nsamples = 1\nvalue = 4.0"] ;
698 -> 699 ;
700 [label="mse = 0.0\nsamples = 1\nvalue = 1.0"] ;
698 -> 700 ;
701 [label="X[64] <= 0.2552\nmse = 6.4154\nsamples = 611\nvalue = 3.7238"] ;
685 -> 701 ;
702 [label="X[69] <= -3.4183\nmse = 5.2842\nsamples = 475\nvalue = 3.2984"] ;
701 -> 702 ;
703 [label="X[8] <= -2.0002\nmse = 4.3934\nsamples = 65\nvalue = 1.5423"] ;
702 -> 703 ;
704 [label="mse = 4.25\nsamples = 4\nvalue = 6.5"] ;
703 -> 704 ;
705 [label="mse = 2.6854\nsamples = 61\nvalue = 1.2172"] ;
703 -> 705 ;
706 [label="X[29] <= -1.0477\nmse = 4.859\nsamples = 410\nvalue = 3.5768"] ;
702 -> 706 ;
707 [label="mse = 0.0\nsamples = 3\nvalue = 9.0"] ;
706 -> 707 ;
708 [label="mse = 4.6765\nsamples = 407\nvalue = 3.5369"] ;
706 -> 708 ;
709 [label="X[33] <= -2.6394\nmse = 7.5269\nsamples = 136\nvalue = 5.2096"] ;
701 -> 709 ;
710 [label="X[21] <= 1.0209\nmse = 3.7545\nsamples = 48\nvalue = 3.6823"] ;
709 -> 710 ;
711 [label="mse = 1.3527\nsamples = 43\nvalue = 3.1802"] ;
710 -> 711 ;
712 [label="mse = 3.6\nsamples = 5\nvalue = 8.0"] ;
710 -> 712 ;
713 [label="X[23] <= 0.4064\nmse = 7.6182\nsamples = 88\nvalue = 6.0426"] ;
709 -> 713 ;
714 [label="mse = 7.017\nsamples = 68\nvalue = 5.4522"] ;
713 -> 714 ;
715 [label="mse = 4.4475\nsamples = 20\nvalue = 8.05"] ;
713 -> 715 ;
716 [label="X[13] <= -0.5617\nmse = 4.2738\nsamples = 2681\nvalue = 6.059"] ;
652 -> 716 ;
717 [label="X[22] <= -0.3238\nmse = 3.4261\nsamples = 1991\nvalue = 5.8169"] ;
716 -> 717 ;
718 [label="X[41] <= 0.5449\nmse = 3.533\nsamples = 674\nvalue = 6.2155"] ;
717 -> 718 ;
719 [label="X[36] <= -1.1215\nmse = 3.6268\nsamples = 377\nvalue = 6.6545"] ;
718 -> 719 ;
720 [label="X[3] <= -2.4946\nmse = 3.2518\nsamples = 37\nvalue = 5.1419"] ;
719 -> 720 ;
721 [label="mse = 0.1055\nsamples = 4\nvalue = 1.8125"] ;
720 -> 721 ;
722 [label="mse = 2.1267\nsamples = 33\nvalue = 5.5455"] ;
720 -> 722 ;
723 [label="X[35] <= 0.9222\nmse = 3.3915\nsamples = 340\nvalue = 6.8191"] ;
719 -> 723 ;
724 [label="mse = 3.5557\nsamples = 248\nvalue = 7.0423"] ;
723 -> 724 ;
725 [label="mse = 2.4527\nsamples = 92\nvalue = 6.2174"] ;
723 -> 725 ;
726 [label="X[54] <= 0.5663\nmse = 2.8588\nsamples = 297\nvalue = 5.6582"] ;
718 -> 726 ;
727 [label="X[42] <= -1.59\nmse = 1.9899\nsamples = 121\nvalue = 6.1694"] ;
726 -> 727 ;
728 [label="mse = 4.6327\nsamples = 14\nvalue = 7.2857"] ;
727 -> 728 ;
729 [label="mse = 1.4597\nsamples = 107\nvalue = 6.0234"] ;
727 -> 729 ;
730 [label="X[1] <= 2.4772\nmse = 3.153\nsamples = 176\nvalue = 5.3068"] ;
726 -> 730 ;
731 [label="mse = 2.9332\nsamples = 174\nvalue = 5.2529"] ;
730 -> 731 ;
732 [label="mse = 0.0\nsamples = 2\nvalue = 10.0"] ;
730 -> 732 ;
733 [label="X[43] <= -1.6678\nmse = 3.2484\nsamples = 1317\nvalue = 5.6129"] ;
717 -> 733 ;
734 [label="X[53] <= -1.0851\nmse = 3.6726\nsamples = 609\nvalue = 5.2808"] ;
733 -> 734 ;
735 [label="X[41] <= -1.1275\nmse = 3.4855\nsamples = 373\nvalue = 4.9799"] ;
734 -> 735 ;
736 [label="mse = 5.8819\nsamples = 31\nvalue = 6.3065"] ;
735 -> 736 ;
737 [label="mse = 3.0943\nsamples = 342\nvalue = 4.8596"] ;
735 -> 737 ;
738 [label="X[26] <= 0.6154\nmse = 3.599\nsamples = 236\nvalue = 5.7564"] ;
734 -> 738 ;
739 [label="mse = 3.1811\nsamples = 125\nvalue = 6.212"] ;
738 -> 739 ;
740 [label="mse = 3.5726\nsamples = 111\nvalue = 5.2432"] ;
738 -> 740 ;
741 [label="X[3] <= -2.9586\nmse = 2.707\nsamples = 708\nvalue = 5.8987"] ;
733 -> 741 ;
742 [label="X[49] <= 0.7286\nmse = 1.9612\nsamples = 23\nvalue = 4.3696"] ;
741 -> 742 ;
743 [label="mse = 0.0\nsamples = 1\nvalue = 0.5"] ;
742 -> 743 ;
744 [label="mse = 1.3388\nsamples = 22\nvalue = 4.5455"] ;
742 -> 744 ;
745 [label="X[51] <= -0.2196\nmse = 2.6509\nsamples = 685\nvalue = 5.95"] ;
741 -> 745 ;
746 [label="mse = 2.9933\nsamples = 176\nvalue = 6.4375"] ;
745 -> 746 ;
747 [label="mse = 2.4219\nsamples = 509\nvalue = 5.7814"] ;
745 -> 747 ;
748 [label="X[22] <= -0.0366\nmse = 6.0627\nsamples = 690\nvalue = 6.7576"] ;
716 -> 748 ;
749 [label="X[53] <= -1.0851\nmse = 4.8539\nsamples = 236\nvalue = 7.7235"] ;
748 -> 749 ;
750 [label="X[38] <= -0.419\nmse = 4.1874\nsamples = 104\nvalue = 6.5096"] ;
749 -> 750 ;
751 [label="X[40] <= 1.1267\nmse = 3.8072\nsamples = 71\nvalue = 7.0986"] ;
750 -> 751 ;
752 [label="mse = 3.5594\nsamples = 49\nvalue = 7.6939"] ;
751 -> 752 ;
753 [label="mse = 1.812\nsamples = 22\nvalue = 5.7727"] ;
751 -> 753 ;
754 [label="X[43] <= -2.6214\nmse = 2.6534\nsamples = 33\nvalue = 5.2424"] ;
750 -> 754 ;
755 [label="mse = 0.0\nsamples = 2\nvalue = 9.0"] ;
754 -> 755 ;
756 [label="mse = 1.8548\nsamples = 31\nvalue = 5.0"] ;
754 -> 756 ;
757 [label="X[48] <= -1.138\nmse = 3.3033\nsamples = 132\nvalue = 8.6799"] ;
749 -> 757 ;
758 [label="X[51] <= 0.8315\nmse = 0.8426\nsamples = 54\nvalue = 9.5"] ;
757 -> 758 ;
759 [label="mse = 0.5152\nsamples = 47\nvalue = 9.6809"] ;
758 -> 759 ;
760 [label="mse = 1.3469\nsamples = 7\nvalue = 8.2857"] ;
758 -> 760 ;
761 [label="X[23] <= 0.4064\nmse = 4.219\nsamples = 78\nvalue = 8.1122"] ;
757 -> 761 ;
762 [label="mse = 4.2809\nsamples = 67\nvalue = 7.8172"] ;
761 -> 762 ;
763 [label="mse = 0.0826\nsamples = 11\nvalue = 9.9091"] ;
761 -> 763 ;
764 [label="X[11] <= 1.5518\nmse = 5.954\nsamples = 454\nvalue = 6.2555"] ;
748 -> 764 ;
765 [label="X[33] <= -2.2127\nmse = 5.912\nsamples = 386\nvalue = 6.035"] ;
764 -> 765 ;
766 [label="X[21] <= -1.9678\nmse = 5.7444\nsamples = 176\nvalue = 5.4276"] ;
765 -> 766 ;
767 [label="mse = 0.1875\nsamples = 4\nvalue = 9.75"] ;
766 -> 767 ;
768 [label="mse = 5.429\nsamples = 172\nvalue = 5.327"] ;
766 -> 768 ;
769 [label="X[43] <= -1.6678\nmse = 5.4841\nsamples = 210\nvalue = 6.544"] ;
765 -> 769 ;
770 [label="mse = 4.8996\nsamples = 119\nvalue = 6.0651"] ;
769 -> 770 ;
771 [label="mse = 5.5562\nsamples = 91\nvalue = 7.1703"] ;
769 -> 771 ;
772 [label="X[67] <= -2.0364\nmse = 4.3492\nsamples = 68\nvalue = 7.5074"] ;
764 -> 772 ;
773 [label="X[60] <= 1.2573\nmse = 1.5207\nsamples = 11\nvalue = 5.5455"] ;
772 -> 773 ;
774 [label="mse = 0.7654\nsamples = 9\nvalue = 5.1111"] ;
773 -> 774 ;
775 [label="mse = 0.25\nsamples = 2\nvalue = 7.5"] ;
773 -> 775 ;
776 [label="X[62] <= 1.7798\nmse = 4.0089\nsamples = 57\nvalue = 7.886"] ;
772 -> 776 ;
777 [label="mse = 3.9329\nsamples = 50\nvalue = 7.61"] ;
776 -> 777 ;
778 [label="mse = 0.1224\nsamples = 7\nvalue = 9.8571"] ;
776 -> 778 ;
779 [label="X[13] <= -0.9258\nmse = 5.4986\nsamples = 3281\nvalue = 7.0424"] ;
651 -> 779 ;
780 [label="X[3] <= -0.1229\nmse = 4.2985\nsamples = 1528\nvalue = 6.394"] ;
779 -> 780 ;
781 [label="X[69] <= -1.9435\nmse = 3.4602\nsamples = 1058\nvalue = 6.0657"] ;
780 -> 781 ;
782 [label="X[51] <= -0.3866\nmse = 5.647\nsamples = 185\nvalue = 5.1432"] ;
781 -> 782 ;
783 [label="X[15] <= 1.1015\nmse = 5.6197\nsamples = 48\nvalue = 6.4896"] ;
782 -> 783 ;
784 [label="X[61] <= -0.2512\nmse = 5.118\nsamples = 45\nvalue = 6.2556"] ;
783 -> 784 ;
785 [label="mse = 4.4344\nsamples = 42\nvalue = 6.5119"] ;
784 -> 785 ;
786 [label="mse = 0.8889\nsamples = 3\nvalue = 2.6667"] ;
784 -> 786 ;
787 [label="mse = 0.0\nsamples = 3\nvalue = 10.0"] ;
783 -> 787 ;
788 [label="X[58] <= -0.3525\nmse = 4.799\nsamples = 137\nvalue = 4.6715"] ;
782 -> 788 ;
789 [label="X[69] <= -2.7082\nmse = 3.3721\nsamples = 54\nvalue = 3.7083"] ;
788 -> 789 ;
790 [label="mse = 1.3212\nsamples = 18\nvalue = 2.375"] ;
789 -> 790 ;
791 [label="mse = 3.0642\nsamples = 36\nvalue = 4.375"] ;
789 -> 791 ;
792 [label="X[35] <= -0.0875\nmse = 4.7311\nsamples = 83\nvalue = 5.2982"] ;
788 -> 792 ;
793 [label="mse = 2.9193\nsamples = 52\nvalue = 4.5144"] ;
792 -> 793 ;
794 [label="mse = 5.0114\nsamples = 31\nvalue = 6.6129"] ;
792 -> 794 ;
795 [label="X[60] <= -0.7589\nmse = 2.7783\nsamples = 873\nvalue = 6.2612"] ;
781 -> 795 ;
796 [label="X[39] <= 1.2529\nmse = 2.2939\nsamples = 335\nvalue = 5.8843"] ;
795 -> 796 ;
797 [label="X[53] <= -2.9743\nmse = 1.9282\nsamples = 289\nvalue = 5.7137"] ;
796 -> 797 ;
798 [label="mse = 0.6875\nsamples = 4\nvalue = 2.75"] ;
797 -> 798 ;
799 [label="mse = 1.8206\nsamples = 285\nvalue = 5.7553"] ;
797 -> 799 ;
800 [label="X[52] <= 0.3218\nmse = 3.259\nsamples = 46\nvalue = 6.9565"] ;
796 -> 800 ;
801 [label="mse = 2.6282\nsamples = 37\nvalue = 6.5135"] ;
800 -> 801 ;
802 [label="mse = 1.7284\nsamples = 9\nvalue = 8.7778"] ;
800 -> 802 ;
803 [label="X[4] <= 0.4406\nmse = 2.9364\nsamples = 538\nvalue = 6.4958"] ;
795 -> 803 ;
804 [label="X[33] <= -0.411\nmse = 3.0544\nsamples = 200\nvalue = 7.0462"] ;
803 -> 804 ;
805 [label="mse = 1.9495\nsamples = 108\nvalue = 6.5648"] ;
804 -> 805 ;
806 [label="mse = 3.76\nsamples = 92\nvalue = 7.6114"] ;
804 -> 806 ;
807 [label="X[0] <= -0.5188\nmse = 2.5813\nsamples = 338\nvalue = 6.1701"] ;
803 -> 807 ;
808 [label="mse = 1.625\nsamples = 32\nvalue = 5.0"] ;
807 -> 808 ;
809 [label="mse = 2.5231\nsamples = 306\nvalue = 6.2925"] ;
807 -> 809 ;
810 [label="X[51] <= -0.0245\nmse = 5.3967\nsamples = 470\nvalue = 7.133"] ;
780 -> 810 ;
811 [label="X[22] <= 1.4595\nmse = 5.1042\nsamples = 214\nvalue = 7.9252"] ;
810 -> 811 ;
812 [label="X[23] <= -1.1159\nmse = 3.8614\nsamples = 192\nvalue = 8.2266"] ;
811 -> 812 ;
813 [label="X[5] <= -1.2406\nmse = 4.1936\nsamples = 71\nvalue = 7.493"] ;
812 -> 813 ;
814 [label="mse = 1.5556\nsamples = 9\nvalue = 5.3333"] ;
813 -> 814 ;
815 [label="mse = 3.8012\nsamples = 62\nvalue = 7.8065"] ;
813 -> 815 ;
816 [label="X[12] <= -2.5801\nmse = 3.1654\nsamples = 121\nvalue = 8.657"] ;
812 -> 816 ;
817 [label="mse = 1.0\nsamples = 2\nvalue = 4.0"] ;
816 -> 817 ;
818 [label="mse = 2.8312\nsamples = 119\nvalue = 8.7353"] ;
816 -> 818 ;
819 [label="X[59] <= 1.0924\nmse = 8.2423\nsamples = 22\nvalue = 5.2955"] ;
811 -> 819 ;
820 [label="X[49] <= -0.1623\nmse = 4.1225\nsamples = 10\nvalue = 7.95"] ;
819 -> 820 ;
821 [label="mse = 0.0\nsamples = 1\nvalue = 2.5"] ;
820 -> 821 ;
822 [label="mse = 0.9136\nsamples = 9\nvalue = 8.5556"] ;
820 -> 822 ;
823 [label="X[48] <= -1.2292\nmse = 0.9097\nsamples = 12\nvalue = 3.0833"] ;
819 -> 823 ;
824 [label="mse = 0.2222\nsamples = 6\nvalue = 2.3333"] ;
823 -> 824 ;
825 [label="mse = 0.4722\nsamples = 6\nvalue = 3.8333"] ;
823 -> 825 ;
826 [label="X[11] <= -0.9343\nmse = 4.6779\nsamples = 256\nvalue = 6.4707"] ;
810 -> 826 ;
827 [label="X[58] <= -1.6391\nmse = 0.2143\nsamples = 7\nvalue = 3.0"] ;
826 -> 827 ;
828 [label="mse = 0.0\nsamples = 1\nvalue = 4.0"] ;
827 -> 828 ;
829 [label="X[14] <= 1.254\nmse = 0.0556\nsamples = 6\nvalue = 2.8333"] ;
827 -> 829 ;
830 [label="mse = 0.0\nsamples = 4\nvalue = 3.0"] ;
829 -> 830 ;
831 [label="mse = 0.0\nsamples = 2\nvalue = 2.5"] ;
829 -> 831 ;
832 [label="X[53] <= -0.196\nmse = 4.4552\nsamples = 249\nvalue = 6.5683"] ;
826 -> 832 ;
833 [label="X[2] <= 0.9058\nmse = 4.1794\nsamples = 201\nvalue = 6.3209"] ;
832 -> 833 ;
834 [label="mse = 3.4605\nsamples = 149\nvalue = 5.9698"] ;
833 -> 834 ;
835 [label="mse = 4.8739\nsamples = 52\nvalue = 7.3269"] ;
833 -> 835 ;
836 [label="X[8] <= 0.5093\nmse = 4.2808\nsamples = 48\nvalue = 7.6042"] ;
832 -> 836 ;
837 [label="mse = 3.6463\nsamples = 43\nvalue = 7.9302"] ;
836 -> 837 ;
838 [label="mse = 0.96\nsamples = 5\nvalue = 4.8"] ;
836 -> 838 ;
839 [label="X[43] <= -0.0618\nmse = 5.8587\nsamples = 1753\nvalue = 7.6077"] ;
779 -> 839 ;
840 [label="X[51] <= -0.5148\nmse = 5.9044\nsamples = 1265\nvalue = 7.2498"] ;
839 -> 840 ;
841 [label="X[13] <= 0.1665\nmse = 4.4029\nsamples = 393\nvalue = 8.1349"] ;
840 -> 841 ;
842 [label="X[26] <= 0.3359\nmse = 4.3025\nsamples = 206\nvalue = 7.6383"] ;
841 -> 842 ;
843 [label="X[31] <= 0.6872\nmse = 4.0776\nsamples = 163\nvalue = 7.2669"] ;
842 -> 843 ;
844 [label="mse = 3.7331\nsamples = 160\nvalue = 7.3531"] ;
843 -> 844 ;
845 [label="mse = 0.8889\nsamples = 3\nvalue = 2.6667"] ;
843 -> 845 ;
846 [label="X[61] <= -1.9085\nmse = 2.649\nsamples = 43\nvalue = 9.0465"] ;
842 -> 846 ;
847 [label="mse = 0.0\nsamples = 1\nvalue = 4.0"] ;
846 -> 847 ;
848 [label="mse = 2.0913\nsamples = 42\nvalue = 9.1667"] ;
846 -> 848 ;
849 [label="X[3] <= 0.2896\nmse = 3.9429\nsamples = 187\nvalue = 8.6818"] ;
841 -> 849 ;
850 [label="X[1] <= 0.6559\nmse = 5.4123\nsamples = 67\nvalue = 7.9254"] ;
849 -> 850 ;
851 [label="mse = 4.6376\nsamples = 65\nvalue = 8.0923"] ;
850 -> 851 ;
852 [label="mse = 0.25\nsamples = 2\nvalue = 2.5"] ;
850 -> 852 ;
853 [label="X[40] <= -1.5569\nmse = 2.6246\nsamples = 120\nvalue = 9.1042"] ;
849 -> 853 ;
854 [label="mse = 0.0\nsamples = 1\nvalue = 1.5"] ;
853 -> 854 ;
855 [label="mse = 2.1566\nsamples = 119\nvalue = 9.1681"] ;
853 -> 855 ;
856 [label="X[35] <= 0.0043\nmse = 6.0689\nsamples = 872\nvalue = 6.8509"] ;
840 -> 856 ;
857 [label="X[43] <= -2.3704\nmse = 5.9504\nsamples = 536\nvalue = 6.4179"] ;
856 -> 857 ;
858 [label="X[4] <= 0.4406\nmse = 7.4605\nsamples = 92\nvalue = 5.2038"] ;
857 -> 858 ;
859 [label="mse = 6.3999\nsamples = 37\nvalue = 6.4797"] ;
858 -> 859 ;
860 [label="mse = 6.342\nsamples = 55\nvalue = 4.3455"] ;
858 -> 860 ;
861 [label="X[48] <= -1.0924\nmse = 5.2687\nsamples = 444\nvalue = 6.6695"] ;
857 -> 861 ;
862 [label="mse = 6.8706\nsamples = 76\nvalue = 7.7171"] ;
861 -> 862 ;
863 [label="mse = 4.6644\nsamples = 368\nvalue = 6.4531"] ;
861 -> 863 ;
864 [label="X[62] <= 2.2751\nmse = 5.4819\nsamples = 336\nvalue = 7.5417"] ;
856 -> 864 ;
865 [label="X[13] <= 0.5306\nmse = 5.189\nsamples = 333\nvalue = 7.5961"] ;
864 -> 865 ;
866 [label="mse = 4.9316\nsamples = 249\nvalue = 7.2309"] ;
865 -> 866 ;
867 [label="mse = 4.3848\nsamples = 84\nvalue = 8.6786"] ;
865 -> 867 ;
868 [label="X[28] <= -0.8118\nmse = 1.1667\nsamples = 3\nvalue = 1.5"] ;
864 -> 868 ;
869 [label="mse = 0.0\nsamples = 1\nvalue = 3.0"] ;
868 -> 869 ;
870 [label="mse = 0.0625\nsamples = 2\nvalue = 0.75"] ;
868 -> 870 ;
871 [label="X[6] <= -2.3502\nmse = 4.5475\nsamples = 488\nvalue = 8.5353"] ;
839 -> 871 ;
872 [label="X[65] <= -1.9251\nmse = 0.5612\nsamples = 7\nvalue = 3.2143"] ;
871 -> 872 ;
873 [label="X[21] <= -0.268\nmse = 0.0347\nsamples = 6\nvalue = 2.9167"] ;
872 -> 873 ;
874 [label="mse = 0.0\nsamples = 1\nvalue = 2.5"] ;
873 -> 874 ;
875 [label="mse = 0.0\nsamples = 5\nvalue = 3.0"] ;
873 -> 875 ;
876 [label="mse = 0.0\nsamples = 1\nvalue = 5.0"] ;
872 -> 876 ;
877 [label="X[23] <= 0.4064\nmse = 4.1875\nsamples = 481\nvalue = 8.6128"] ;
871 -> 877 ;
878 [label="X[59] <= 1.6926\nmse = 4.8061\nsamples = 225\nvalue = 8.1322"] ;
877 -> 878 ;
879 [label="X[51] <= 0.8255\nmse = 4.5483\nsamples = 215\nvalue = 8.25"] ;
878 -> 879 ;
880 [label="mse = 4.2826\nsamples = 169\nvalue = 8.4837"] ;
879 -> 880 ;
881 [label="mse = 4.586\nsamples = 46\nvalue = 7.3913"] ;
879 -> 881 ;
882 [label="X[19] <= 0.9636\nmse = 3.64\nsamples = 10\nvalue = 5.6"] ;
878 -> 882 ;
883 [label="mse = 0.2449\nsamples = 7\nvalue = 4.4286"] ;
882 -> 883 ;
884 [label="mse = 0.8889\nsamples = 3\nvalue = 8.3333"] ;
882 -> 884 ;
885 [label="X[25] <= -1.2029\nmse = 3.2624\nsamples = 256\nvalue = 9.0352"] ;
877 -> 885 ;
886 [label="X[64] <= -1.2504\nmse = 5.0503\nsamples = 43\nvalue = 7.8605"] ;
885 -> 886 ;
887 [label="mse = 3.76\nsamples = 40\nvalue = 8.2"] ;
886 -> 887 ;
888 [label="mse = 0.2222\nsamples = 3\nvalue = 3.3333"] ;
886 -> 888 ;
889 [label="X[56] <= 1.9032\nmse = 2.5667\nsamples = 213\nvalue = 9.2723"] ;
885 -> 889 ;
890 [label="mse = 2.2925\nsamples = 212\nvalue = 9.309"] ;
889 -> 890 ;
891 [label="mse = 0.0\nsamples = 1\nvalue = 1.5"] ;
889 -> 891 ;
892 [label="X[69] <= 0.2412\nmse = 1.2002\nsamples = 152644\nvalue = 9.6666"] ;
0 -> 892 [labeldistance=2.5, labelangle=-45, headlabel="False"] ;
893 [label="X[23] <= -0.7353\nmse = 3.5305\nsamples = 16944\nvalue = 8.0145"] ;
892 -> 893 ;
894 [label="X[69] <= -0.6327\nmse = 3.5717\nsamples = 8960\nvalue = 7.4908"] ;
893 -> 894 ;
895 [label="X[3] <= -0.5353\nmse = 3.1246\nsamples = 3571\nvalue = 6.9191"] ;
894 -> 895 ;
896 [label="X[23] <= -1.877\nmse = 2.9754\nsamples = 2294\nvalue = 6.6522"] ;
895 -> 896 ;
897 [label="X[35] <= -0.0875\nmse = 4.3059\nsamples = 493\nvalue = 6.0046"] ;
896 -> 897 ;
898 [label="X[34] <= -0.5658\nmse = 4.5373\nsamples = 218\nvalue = 5.3062"] ;
897 -> 898 ;
899 [label="X[59] <= 0.9123\nmse = 2.3515\nsamples = 48\nvalue = 6.6354"] ;
898 -> 899 ;
900 [label="X[12] <= -0.3697\nmse = 1.2308\nsamples = 13\nvalue = 8.0"] ;
899 -> 900 ;
901 [label="mse = 0.16\nsamples = 5\nvalue = 9.2"] ;
900 -> 901 ;
902 [label="mse = 0.4375\nsamples = 8\nvalue = 7.25"] ;
900 -> 902 ;
903 [label="X[1] <= 0.0383\nmse = 1.8192\nsamples = 35\nvalue = 6.1286"] ;
899 -> 903 ;
904 [label="mse = 0.2222\nsamples = 3\nvalue = 8.6667"] ;
903 -> 904 ;
905 [label="mse = 1.3083\nsamples = 32\nvalue = 5.8906"] ;
903 -> 905 ;
906 [label="X[32] <= -0.8021\nmse = 4.5147\nsamples = 170\nvalue = 4.9309"] ;
898 -> 906 ;
907 [label="X[67] <= 0.19\nmse = 1.3504\nsamples = 28\nvalue = 3.4911"] ;
906 -> 907 ;
908 [label="mse = 1.0096\nsamples = 21\nvalue = 3.131"] ;
907 -> 908 ;
909 [label="mse = 0.8163\nsamples = 7\nvalue = 4.5714"] ;
907 -> 909 ;
910 [label="X[33] <= -2.5446\nmse = 4.6493\nsamples = 142\nvalue = 5.2148"] ;
906 -> 910 ;
911 [label="mse = 5.5141\nsamples = 13\nvalue = 3.2692"] ;
910 -> 911 ;
912 [label="mse = 4.1422\nsamples = 129\nvalue = 5.4109"] ;
910 -> 912 ;
913 [label="X[44] <= 1.1923\nmse = 3.4293\nsamples = 275\nvalue = 6.5582"] ;
897 -> 913 ;
914 [label="X[32] <= 0.2444\nmse = 3.0611\nsamples = 229\nvalue = 6.81"] ;
913 -> 914 ;
915 [label="X[12] <= -0.5656\nmse = 2.7776\nsamples = 177\nvalue = 6.5452"] ;
914 -> 915 ;
916 [label="mse = 4.4813\nsamples = 31\nvalue = 7.7258"] ;
915 -> 916 ;
917 [label="mse = 2.0571\nsamples = 146\nvalue = 6.2945"] ;
915 -> 917 ;
918 [label="X[2] <= 0.4908\nmse = 2.9745\nsamples = 52\nvalue = 7.7115"] ;
914 -> 918 ;
919 [label="mse = 2.5185\nsamples = 27\nvalue = 7.0"] ;
918 -> 919 ;
920 [label="mse = 2.3296\nsamples = 25\nvalue = 8.48"] ;
918 -> 920 ;
921 [label="X[62] <= -1.5906\nmse = 3.3748\nsamples = 46\nvalue = 5.3043"] ;
913 -> 921 ;
922 [label="X[12] <= -1.1708\nmse = 0.94\nsamples = 5\nvalue = 2.6"] ;
921 -> 922 ;
923 [label="mse = 0.375\nsamples = 4\nvalue = 3.0"] ;
922 -> 923 ;
924 [label="mse = 0.0\nsamples = 1\nvalue = 1.0"] ;
922 -> 924 ;
925 [label="X[7] <= -1.2426\nmse = 2.671\nsamples = 41\nvalue = 5.6341"] ;
921 -> 925 ;
926 [label="mse = 3.5\nsamples = 4\nvalue = 8.0"] ;
925 -> 926 ;
927 [label="mse = 1.9109\nsamples = 37\nvalue = 5.3784"] ;
925 -> 927 ;
928 [label="X[11] <= 1.0889\nmse = 2.4649\nsamples = 1801\nvalue = 6.8295"] ;
896 -> 928 ;
929 [label="X[20] <= -0.9213\nmse = 2.1902\nsamples = 1573\nvalue = 6.9339"] ;
928 -> 929 ;
930 [label="X[43] <= -0.0618\nmse = 1.8547\nsamples = 566\nvalue = 6.6131"] ;
929 -> 930 ;
931 [label="X[2] <= 1.9369\nmse = 1.7004\nsamples = 538\nvalue = 6.5465"] ;
930 -> 931 ;
932 [label="mse = 1.6445\nsamples = 536\nvalue = 6.5616"] ;
931 -> 932 ;
933 [label="mse = 0.25\nsamples = 2\nvalue = 2.5"] ;
931 -> 933 ;
934 [label="X[20] <= -1.2638\nmse = 3.0957\nsamples = 28\nvalue = 7.8929"] ;
930 -> 934 ;
935 [label="mse = 2.6836\nsamples = 16\nvalue = 7.0625"] ;
934 -> 935 ;
936 [label="mse = 1.5\nsamples = 12\nvalue = 9.0"] ;
934 -> 936 ;
937 [label="X[50] <= 0.2086\nmse = 2.2883\nsamples = 1007\nvalue = 7.1142"] ;
929 -> 937 ;
938 [label="X[36] <= 0.2865\nmse = 2.5346\nsamples = 499\nvalue = 7.499"] ;
937 -> 938 ;
939 [label="mse = 2.4377\nsamples = 302\nvalue = 7.1126"] ;
938 -> 939 ;
940 [label="mse = 2.1033\nsamples = 197\nvalue = 8.0914"] ;
938 -> 940 ;
941 [label="X[43] <= -1.6678\nmse = 1.7582\nsamples = 508\nvalue = 6.7362"] ;
937 -> 941 ;
942 [label="mse = 1.9146\nsamples = 87\nvalue = 6.1034"] ;
941 -> 942 ;
943 [label="mse = 1.626\nsamples = 421\nvalue = 6.867"] ;
941 -> 943 ;
944 [label="X[68] <= 0.6597\nmse = 3.767\nsamples = 228\nvalue = 6.1096"] ;
928 -> 944 ;
945 [label="X[13] <= -1.9272\nmse = 2.5773\nsamples = 83\nvalue = 6.8825"] ;
944 -> 945 ;
946 [label="X[4] <= 1.1129\nmse = 3.125\nsamples = 3\nvalue = 3.75"] ;
945 -> 946 ;
947 [label="mse = 0.0\nsamples = 2\nvalue = 5.0"] ;
946 -> 947 ;
948 [label="mse = 0.0\nsamples = 1\nvalue = 1.25"] ;
946 -> 948 ;
949 [label="X[33] <= -1.1696\nmse = 2.175\nsamples = 80\nvalue = 7.0"] ;
945 -> 949 ;
950 [label="mse = 2.249\nsamples = 47\nvalue = 6.4681"] ;
949 -> 950 ;
951 [label="mse = 1.0927\nsamples = 33\nvalue = 7.7576"] ;
949 -> 951 ;
952 [label="X[21] <= 2.0862\nmse = 3.9104\nsamples = 145\nvalue = 5.6672"] ;
944 -> 952 ;
953 [label="X[29] <= 0.2218\nmse = 3.8095\nsamples = 126\nvalue = 5.4504"] ;
952 -> 953 ;
954 [label="mse = 0.0139\nsamples = 3\nvalue = 1.9167"] ;
953 -> 954 ;
955 [label="mse = 3.5901\nsamples = 123\nvalue = 5.5366"] ;
953 -> 955 ;
956 [label="X[11] <= 3.2889\nmse = 2.1994\nsamples = 19\nvalue = 7.1053"] ;
952 -> 956 ;
957 [label="mse = 1.3333\nsamples = 18\nvalue = 7.3333"] ;
956 -> 957 ;
958 [label="mse = 0.0\nsamples = 1\nvalue = 3.0"] ;
956 -> 958 ;
959 [label="X[33] <= -1.1696\nmse = 3.0348\nsamples = 1277\nvalue = 7.3986"] ;
895 -> 959 ;
960 [label="X[2] <= -1.522\nmse = 2.9304\nsamples = 371\nvalue = 6.8774"] ;
959 -> 960 ;
961 [label="X[32] <= -1.5948\nmse = 2.4\nsamples = 15\nvalue = 9.0"] ;
960 -> 961 ;
962 [label="X[61] <= 0.1127\nmse = 1.0\nsamples = 2\nvalue = 6.0"] ;
961 -> 962 ;
963 [label="mse = 0.0\nsamples = 1\nvalue = 5.0"] ;
962 -> 963 ;
964 [label="mse = 0.0\nsamples = 1\nvalue = 7.0"] ;
962 -> 964 ;
965 [label="X[44] <= -0.6711\nmse = 1.0178\nsamples = 13\nvalue = 9.4615"] ;
961 -> 965 ;
966 [label="X[50] <= -0.3952\nmse = 0.25\nsamples = 2\nvalue = 7.5"] ;
965 -> 966 ;
967 [label="mse = 0.0\nsamples = 1\nvalue = 8.0"] ;
966 -> 967 ;
968 [label="mse = 0.0\nsamples = 1\nvalue = 7.0"] ;
966 -> 968 ;
969 [label="X[21] <= -0.751\nmse = 0.3306\nsamples = 11\nvalue = 9.8182"] ;
965 -> 969 ;
970 [label="mse = 0.0\nsamples = 1\nvalue = 8.0"] ;
969 -> 970 ;
971 [label="mse = 0.0\nsamples = 10\nvalue = 10.0"] ;
969 -> 971 ;
972 [label="X[13] <= -1.6541\nmse = 2.7549\nsamples = 356\nvalue = 6.7879"] ;
960 -> 972 ;
973 [label="X[38] <= -1.5774\nmse = 3.4391\nsamples = 48\nvalue = 5.8438"] ;
972 -> 973 ;
974 [label="X[36] <= -0.7461\nmse = 0.1875\nsamples = 4\nvalue = 2.25"] ;
973 -> 974 ;
975 [label="mse = 0.0\nsamples = 1\nvalue = 3.0"] ;
974 -> 975 ;
976 [label="mse = 0.0\nsamples = 3\nvalue = 2.0"] ;
974 -> 976 ;
977 [label="X[14] <= -0.561\nmse = 2.4539\nsamples = 44\nvalue = 6.1705"] ;
973 -> 977 ;
978 [label="mse = 0.9067\nsamples = 15\nvalue = 7.4"] ;
977 -> 978 ;
979 [label="mse = 2.0678\nsamples = 29\nvalue = 5.5345"] ;
977 -> 979 ;
980 [label="X[41] <= 0.1792\nmse = 2.4877\nsamples = 308\nvalue = 6.9351"] ;
972 -> 980 ;
981 [label="X[23] <= -2.6858\nmse = 2.309\nsamples = 113\nvalue = 7.4735"] ;
980 -> 981 ;
982 [label="mse = 0.0\nsamples = 1\nvalue = 2.5"] ;
981 -> 982 ;
983 [label="mse = 2.1068\nsamples = 112\nvalue = 7.5179"] ;
981 -> 983 ;
984 [label="X[36] <= -0.8399\nmse = 2.3259\nsamples = 195\nvalue = 6.6231"] ;
980 -> 984 ;
985 [label="mse = 0.4898\nsamples = 7\nvalue = 8.7143"] ;
984 -> 985 ;
986 [label="mse = 2.2253\nsamples = 188\nvalue = 6.5452"] ;
984 -> 986 ;
987 [label="X[13] <= -0.1976\nmse = 2.9208\nsamples = 906\nvalue = 7.612"] ;
959 -> 987 ;
988 [label="X[8] <= -2.0914\nmse = 2.8249\nsamples = 802\nvalue = 7.5044"] ;
987 -> 988 ;
989 [label="X[2] <= -0.243\nmse = 4.6326\nsamples = 16\nvalue = 5.6094"] ;
988 -> 989 ;
990 [label="X[34] <= 1.237\nmse = 2.1224\nsamples = 7\nvalue = 7.1429"] ;
989 -> 990 ;
991 [label="mse = 0.0\nsamples = 2\nvalue = 5.0"] ;
990 -> 991 ;
992 [label="mse = 0.4\nsamples = 5\nvalue = 8.0"] ;
990 -> 992 ;
993 [label="X[66] <= -1.0829\nmse = 3.3333\nsamples = 9\nvalue = 4.4167"] ;
989 -> 993 ;
994 [label="mse = 1.551\nsamples = 7\nvalue = 5.1429"] ;
993 -> 994 ;
995 [label="mse = 1.2656\nsamples = 2\nvalue = 1.875"] ;
993 -> 995 ;
996 [label="X[51] <= -0.6375\nmse = 2.7136\nsamples = 786\nvalue = 7.5429"] ;
988 -> 996 ;
997 [label="X[3] <= 0.2896\nmse = 2.0135\nsamples = 169\nvalue = 8.0651"] ;
996 -> 997 ;
998 [label="mse = 1.5875\nsamples = 86\nvalue = 7.686"] ;
997 -> 998 ;
999 [label="mse = 2.1518\nsamples = 83\nvalue = 8.4578"] ;
997 -> 999 ;
1000 [label="X[62] <= 0.9076\nmse = 2.8102\nsamples = 617\nvalue = 7.3999"] ;
996 -> 1000 ;
1001 [label="mse = 2.6908\nsamples = 500\nvalue = 7.2415"] ;
1000 -> 1001 ;
1002 [label="mse = 2.7548\nsamples = 117\nvalue = 8.0769"] ;
1000 -> 1002 ;
1003 [label="X[36] <= -0.2767\nmse = 2.8813\nsamples = 104\nvalue = 8.4423"] ;
987 -> 1003 ;
1004 [label="X[59] <= 1.0324\nmse = 3.5358\nsamples = 39\nvalue = 7.7179"] ;
1003 -> 1004 ;
1005 [label="X[39] <= 0.1276\nmse = 1.6529\nsamples = 33\nvalue = 8.2727"] ;
1004 -> 1005 ;
1006 [label="mse = 0.8402\nsamples = 13\nvalue = 9.0769"] ;
1005 -> 1006 ;
1007 [label="mse = 1.4875\nsamples = 20\nvalue = 7.75"] ;
1005 -> 1007 ;
1008 [label="X[4] <= -0.2317\nmse = 2.8889\nsamples = 6\nvalue = 4.6667"] ;
1004 -> 1008 ;
1009 [label="mse = 0.25\nsamples = 2\nvalue = 2.5"] ;
1008 -> 1009 ;
1010 [label="mse = 0.6875\nsamples = 4\nvalue = 5.75"] ;
1008 -> 1010 ;
1011 [label="X[19] <= -0.4018\nmse = 1.9849\nsamples = 65\nvalue = 8.8769"] ;
1003 -> 1011 ;
1012 [label="X[64] <= 0.5209\nmse = 1.8678\nsamples = 11\nvalue = 7.6364"] ;
1011 -> 1012 ;
1013 [label="mse = 0.0\nsamples = 2\nvalue = 10.0"] ;
1012 -> 1013 ;
1014 [label="mse = 0.7654\nsamples = 9\nvalue = 7.1111"] ;
1012 -> 1014 ;
1015 [label="X[12] <= 2.027\nmse = 1.6313\nsamples = 54\nvalue = 9.1296"] ;
1011 -> 1015 ;
1016 [label="mse = 1.0972\nsamples = 48\nvalue = 9.3333"] ;
1015 -> 1016 ;
1017 [label="mse = 2.9167\nsamples = 6\nvalue = 7.5"] ;
1015 -> 1017 ;
1018 [label="X[23] <= -2.1625\nmse = 3.5079\nsamples = 5389\nvalue = 7.8696"] ;
894 -> 1018 ;
1019 [label="X[12] <= -0.2413\nmse = 6.955\nsamples = 381\nvalue = 6.4921"] ;
1018 -> 1019 ;
1020 [label="X[56] <= -0.4058\nmse = 6.5177\nsamples = 108\nvalue = 5.1759"] ;
1019 -> 1020 ;
1021 [label="X[24] <= 0.0389\nmse = 4.343\nsamples = 46\nvalue = 3.837"] ;
1020 -> 1021 ;
1022 [label="X[43] <= 0.3397\nmse = 1.5062\nsamples = 9\nvalue = 6.2222"] ;
1021 -> 1022 ;
1023 [label="X[41] <= 0.3218\nmse = 0.6094\nsamples = 8\nvalue = 5.875"] ;
1022 -> 1023 ;
1024 [label="mse = 0.24\nsamples = 5\nvalue = 6.4"] ;
1023 -> 1024 ;
1025 [label="mse = 0.0\nsamples = 3\nvalue = 5.0"] ;
1023 -> 1025 ;
1026 [label="mse = 0.0\nsamples = 1\nvalue = 9.0"] ;
1022 -> 1026 ;
1027 [label="X[61] <= 1.5289\nmse = 3.3125\nsamples = 37\nvalue = 3.2568"] ;
1021 -> 1027 ;
1028 [label="X[3] <= -2.7008\nmse = 2.0855\nsamples = 35\nvalue = 2.9857"] ;
1027 -> 1028 ;
1029 [label="mse = 0.8702\nsamples = 14\nvalue = 2.0179"] ;
1028 -> 1029 ;
1030 [label="mse = 1.8549\nsamples = 21\nvalue = 3.631"] ;
1028 -> 1030 ;
1031 [label="X[50] <= -1.1826\nmse = 1.0\nsamples = 2\nvalue = 8.0"] ;
1027 -> 1031 ;
1032 [label="mse = 0.0\nsamples = 1\nvalue = 9.0"] ;
1031 -> 1032 ;
1033 [label="mse = 0.0\nsamples = 1\nvalue = 7.0"] ;
1031 -> 1033 ;
1034 [label="X[32] <= -0.8921\nmse = 5.8141\nsamples = 62\nvalue = 6.1694"] ;
1020 -> 1034 ;
1035 [label="X[43] <= -3.0731\nmse = 3.0762\nsamples = 19\nvalue = 4.5526"] ;
1034 -> 1035 ;
1036 [label="mse = 0.0\nsamples = 1\nvalue = 10.0"] ;
1035 -> 1036 ;
1037 [label="X[26] <= -0.4094\nmse = 1.5069\nsamples = 18\nvalue = 4.25"] ;
1035 -> 1037 ;
1038 [label="mse = 0.0\nsamples = 1\nvalue = 8.0"] ;
1037 -> 1038 ;
1039 [label="mse = 0.7197\nsamples = 17\nvalue = 4.0294"] ;
1037 -> 1039 ;
1040 [label="X[25] <= 1.1615\nmse = 5.3586\nsamples = 43\nvalue = 6.8837"] ;
1034 -> 1040 ;
1041 [label="X[53] <= -1.0851\nmse = 4.5444\nsamples = 40\nvalue = 7.175"] ;
1040 -> 1041 ;
1042 [label="mse = 2.2479\nsamples = 11\nvalue = 5.4545"] ;
1041 -> 1042 ;
1043 [label="mse = 3.8668\nsamples = 29\nvalue = 7.8276"] ;
1041 -> 1043 ;
1044 [label="mse = 0.0\nsamples = 3\nvalue = 3.0"] ;
1040 -> 1044 ;
1045 [label="X[18] <= -2.1876\nmse = 6.1715\nsamples = 273\nvalue = 7.0128"] ;
1019 -> 1045 ;
1046 [label="X[26] <= -0.5491\nmse = 3.2747\nsamples = 9\nvalue = 2.6944"] ;
1045 -> 1046 ;
1047 [label="X[11] <= -1.5902\nmse = 0.0742\nsamples = 4\nvalue = 1.0625"] ;
1046 -> 1047 ;
1048 [label="mse = 0.0\nsamples = 1\nvalue = 1.5"] ;
1047 -> 1048 ;
1049 [label="X[29] <= 1.0379\nmse = 0.0139\nsamples = 3\nvalue = 0.9167"] ;
1047 -> 1049 ;
1050 [label="mse = 0.0\nsamples = 2\nvalue = 1.0"] ;
1049 -> 1050 ;
1051 [label="mse = 0.0\nsamples = 1\nvalue = 0.75"] ;
1049 -> 1051 ;
1052 [label="X[53] <= -1.9741\nmse = 2.0\nsamples = 5\nvalue = 4.0"] ;
1046 -> 1052 ;
1053 [label="X[38] <= -2.6676\nmse = 0.25\nsamples = 2\nvalue = 2.5"] ;
1052 -> 1053 ;
1054 [label="mse = 0.0\nsamples = 1\nvalue = 2.0"] ;
1053 -> 1054 ;
1055 [label="mse = 0.0\nsamples = 1\nvalue = 3.0"] ;
1053 -> 1055 ;
1056 [label="X[66] <= -0.8413\nmse = 0.6667\nsamples = 3\nvalue = 5.0"] ;
1052 -> 1056 ;
1057 [label="mse = 0.25\nsamples = 2\nvalue = 4.5"] ;
1056 -> 1057 ;
1058 [label="mse = 0.0\nsamples = 1\nvalue = 6.0"] ;
1056 -> 1058 ;
1059 [label="X[3] <= -2.8555\nmse = 5.6129\nsamples = 264\nvalue = 7.16"] ;
1045 -> 1059 ;
1060 [label="X[14] <= 0.044\nmse = 11.2584\nsamples = 35\nvalue = 5.3857"] ;
1059 -> 1060 ;
1061 [label="X[40] <= -0.9425\nmse = 0.75\nsamples = 8\nvalue = 8.5"] ;
1060 -> 1061 ;
1062 [label="mse = 0.1875\nsamples = 4\nvalue = 9.25"] ;
1061 -> 1062 ;
1063 [label="mse = 0.1875\nsamples = 4\nvalue = 7.75"] ;
1061 -> 1063 ;
1064 [label="X[42] <= -0.4205\nmse = 10.6468\nsamples = 27\nvalue = 4.463"] ;
1060 -> 1064 ;
1065 [label="mse = 1.04\nsamples = 5\nvalue = 8.4"] ;
1064 -> 1065 ;
1066 [label="mse = 8.5067\nsamples = 22\nvalue = 3.5682"] ;
1064 -> 1066 ;
1067 [label="X[9] <= -0.9674\nmse = 4.1953\nsamples = 229\nvalue = 7.4312"] ;
1059 -> 1067 ;
1068 [label="X[51] <= 0.7622\nmse = 0.5972\nsamples = 3\nvalue = 1.9167"] ;
1067 -> 1068 ;
1069 [label="mse = 0.0\nsamples = 1\nvalue = 3.0"] ;
1068 -> 1069 ;
1070 [label="mse = 0.0156\nsamples = 2\nvalue = 1.375"] ;
1068 -> 1070 ;
1071 [label="X[36] <= 0.0049\nmse = 3.8341\nsamples = 226\nvalue = 7.5044"] ;
1067 -> 1071 ;
1072 [label="mse = 2.8905\nsamples = 82\nvalue = 8.3659"] ;
1071 -> 1072 ;
1073 [label="mse = 3.7081\nsamples = 144\nvalue = 7.0139"] ;
1071 -> 1073 ;
1074 [label="X[24] <= -0.5646\nmse = 3.0904\nsamples = 5008\nvalue = 7.9744"] ;
1018 -> 1074 ;
1075 [label="X[69] <= -0.1957\nmse = 1.8143\nsamples = 1864\nvalue = 8.3771"] ;
1074 -> 1075 ;
1076 [label="X[40] <= 1.056\nmse = 1.8489\nsamples = 997\nvalue = 8.0411"] ;
1075 -> 1076 ;
1077 [label="X[30] <= -0.9425\nmse = 1.7651\nsamples = 811\nvalue = 8.2121"] ;
1076 -> 1077 ;
1078 [label="X[3] <= 0.2896\nmse = 1.6259\nsamples = 352\nvalue = 7.6477"] ;
1077 -> 1078 ;
1079 [label="mse = 1.416\nsamples = 276\nvalue = 7.4746"] ;
1078 -> 1079 ;
1080 [label="mse = 1.8842\nsamples = 76\nvalue = 8.2763"] ;
1078 -> 1080 ;
1081 [label="X[0] <= 0.2792\nmse = 1.4403\nsamples = 459\nvalue = 8.6449"] ;
1077 -> 1081 ;
1082 [label="mse = 1.3088\nsamples = 359\nvalue = 8.8162"] ;
1081 -> 1082 ;
1083 [label="mse = 1.4291\nsamples = 100\nvalue = 8.03"] ;
1081 -> 1083 ;
1084 [label="X[42] <= -0.543\nmse = 1.5308\nsamples = 186\nvalue = 7.2957"] ;
1076 -> 1084 ;
1085 [label="X[18] <= -1.1266\nmse = 1.5753\nsamples = 39\nvalue = 8.2564"] ;
1084 -> 1085 ;
1086 [label="mse = 0.0\nsamples = 1\nvalue = 4.0"] ;
1085 -> 1086 ;
1087 [label="mse = 1.1274\nsamples = 38\nvalue = 8.3684"] ;
1085 -> 1087 ;
1088 [label="X[57] <= -0.2329\nmse = 1.2092\nsamples = 147\nvalue = 7.0408"] ;
1084 -> 1088 ;
1089 [label="mse = 1.1098\nsamples = 95\nvalue = 6.7579"] ;
1088 -> 1089 ;
1090 [label="mse = 0.9774\nsamples = 52\nvalue = 7.5577"] ;
1088 -> 1090 ;
1091 [label="X[50] <= 0.2792\nmse = 1.4954\nsamples = 867\nvalue = 8.7636"] ;
1075 -> 1091 ;
1092 [label="X[0] <= -0.9213\nmse = 1.336\nsamples = 673\nvalue = 8.9346"] ;
1091 -> 1092 ;
1093 [label="X[28] <= 0.2293\nmse = 1.4642\nsamples = 331\nvalue = 8.5166"] ;
1092 -> 1093 ;
1094 [label="mse = 1.6876\nsamples = 168\nvalue = 8.3036"] ;
1093 -> 1094 ;
1095 [label="mse = 1.139\nsamples = 163\nvalue = 8.7362"] ;
1093 -> 1095 ;
1096 [label="X[42] <= 0.2345\nmse = 0.8791\nsamples = 342\nvalue = 9.3392"] ;
1092 -> 1096 ;
1097 [label="mse = 0.9393\nsamples = 301\nvalue = 9.2658"] ;
1096 -> 1097 ;
1098 [label="mse = 0.1071\nsamples = 41\nvalue = 9.878"] ;
1096 -> 1098 ;
1099 [label="X[13] <= -1.9272\nmse = 1.5948\nsamples = 194\nvalue = 8.1701"] ;
1091 -> 1099 ;
1100 [label="X[23] <= -1.877\nmse = 0.9822\nsamples = 13\nvalue = 6.6923"] ;
1099 -> 1100 ;
1101 [label="mse = 0.25\nsamples = 4\nvalue = 5.5"] ;
1100 -> 1101 ;
1102 [label="mse = 0.3951\nsamples = 9\nvalue = 7.2222"] ;
1100 -> 1102 ;
1103 [label="X[43] <= -2.0693\nmse = 1.4707\nsamples = 181\nvalue = 8.2762"] ;
1099 -> 1103 ;
1104 [label="mse = 0.6667\nsamples = 3\nvalue = 6.0"] ;
1103 -> 1104 ;
1105 [label="mse = 1.3954\nsamples = 178\nvalue = 8.3146"] ;
1103 -> 1105 ;
1106 [label="X[3] <= -0.9478\nmse = 3.6937\nsamples = 3144\nvalue = 7.7357"] ;
1074 -> 1106 ;
1107 [label="X[31] <= 1.6586\nmse = 4.1254\nsamples = 1275\nvalue = 7.3157"] ;
1106 -> 1107 ;
1108 [label="X[43] <= -1.6678\nmse = 3.8443\nsamples = 1174\nvalue = 7.454"] ;
1107 -> 1108 ;
1109 [label="X[53] <= -2.4186\nmse = 5.2567\nsamples = 139\nvalue = 6.4694"] ;
1108 -> 1109 ;
1110 [label="mse = 2.8724\nsamples = 14\nvalue = 4.1429"] ;
1109 -> 1110 ;
1111 [label="mse = 4.8496\nsamples = 125\nvalue = 6.73"] ;
1109 -> 1111 ;
1112 [label="X[1] <= -1.9363\nmse = 3.507\nsamples = 1035\nvalue = 7.5862"] ;
1108 -> 1112 ;
1113 [label="mse = 6.9307\nsamples = 19\nvalue = 5.2632"] ;
1112 -> 1113 ;
1114 [label="mse = 3.3402\nsamples = 1016\nvalue = 7.6297"] ;
1112 -> 1114 ;
1115 [label="X[9] <= 0.5261\nmse = 4.5855\nsamples = 101\nvalue = 5.7079"] ;
1107 -> 1115 ;
1116 [label="X[51] <= 2.2494\nmse = 3.5172\nsamples = 29\nvalue = 7.0"] ;
1115 -> 1116 ;
1117 [label="mse = 0.8844\nsamples = 21\nvalue = 7.8571"] ;
1116 -> 1117 ;
1118 [label="mse = 3.4375\nsamples = 8\nvalue = 4.75"] ;
1116 -> 1118 ;
1119 [label="X[44] <= 1.1923\nmse = 4.0725\nsamples = 72\nvalue = 5.1875"] ;
1115 -> 1119 ;
1120 [label="mse = 3.9969\nsamples = 36\nvalue = 5.9444"] ;
1119 -> 1120 ;
1121 [label="mse = 3.0021\nsamples = 36\nvalue = 4.4306"] ;
1119 -> 1121 ;
1122 [label="X[19] <= 0.7855\nmse = 3.1968\nsamples = 1869\nvalue = 8.0222"] ;
1106 -> 1122 ;
1123 [label="X[64] <= -1.1619\nmse = 2.8105\nsamples = 1012\nvalue = 8.2544"] ;
1122 -> 1123 ;
1124 [label="X[28] <= -1.1588\nmse = 3.5753\nsamples = 235\nvalue = 7.7511"] ;
1123 -> 1124 ;
1125 [label="mse = 6.5942\nsamples = 19\nvalue = 6.1053"] ;
1124 -> 1125 ;
1126 [label="mse = 3.0505\nsamples = 216\nvalue = 7.8958"] ;
1124 -> 1126 ;
1127 [label="X[8] <= 0.0987\nmse = 2.4794\nsamples = 777\nvalue = 8.4067"] ;
1123 -> 1127 ;
1128 [label="mse = 2.8828\nsamples = 496\nvalue = 8.2339"] ;
1127 -> 1128 ;
1129 [label="mse = 1.6215\nsamples = 281\nvalue = 8.7117"] ;
1127 -> 1129 ;
1130 [label="X[53] <= -0.196\nmse = 3.5141\nsamples = 857\nvalue = 7.748"] ;
1122 -> 1130 ;
1131 [label="X[5] <= 0.0486\nmse = 3.6775\nsamples = 487\nvalue = 7.4897"] ;
1130 -> 1131 ;
1132 [label="mse = 3.8716\nsamples = 246\nvalue = 7.1728"] ;
1131 -> 1132 ;
1133 [label="mse = 3.2722\nsamples = 241\nvalue = 7.8133"] ;
1131 -> 1133 ;
1134 [label="X[3] <= 0.2896\nmse = 3.0957\nsamples = 370\nvalue = 8.0878"] ;
1130 -> 1134 ;
1135 [label="mse = 3.0846\nsamples = 224\nvalue = 7.7656"] ;
1134 -> 1135 ;
1136 [label="mse = 2.709\nsamples = 146\nvalue = 8.5822"] ;
1134 -> 1136 ;
1137 [label="X[43] <= -0.0618\nmse = 2.8311\nsamples = 7984\nvalue = 8.6021"] ;
893 -> 1137 ;
1138 [label="X[69] <= -0.6327\nmse = 3.05\nsamples = 4702\nvalue = 8.2957"] ;
1137 -> 1138 ;
1139 [label="X[51] <= -0.6809\nmse = 3.6529\nsamples = 1075\nvalue = 7.6691"] ;
1138 -> 1139 ;
1140 [label="X[49] <= 1.7731\nmse = 2.339\nsamples = 179\nvalue = 8.757"] ;
1139 -> 1140 ;
1141 [label="X[38] <= -0.26\nmse = 2.1309\nsamples = 178\nvalue = 8.7921"] ;
1140 -> 1141 ;
1142 [label="X[28] <= -1.714\nmse = 1.5852\nsamples = 132\nvalue = 9.0758"] ;
1141 -> 1142 ;
1143 [label="X[39] <= 1.1279\nmse = 1.6645\nsamples = 41\nvalue = 8.4878"] ;
1142 -> 1143 ;
1144 [label="mse = 1.5273\nsamples = 32\nvalue = 8.1875"] ;
1143 -> 1144 ;
1145 [label="mse = 0.6914\nsamples = 9\nvalue = 9.5556"] ;
1143 -> 1145 ;
1146 [label="X[61] <= 0.3059\nmse = 1.3235\nsamples = 91\nvalue = 9.3407"] ;
1142 -> 1146 ;
1147 [label="mse = 1.1265\nsamples = 90\nvalue = 9.3889"] ;
1146 -> 1147 ;
1148 [label="mse = 0.0\nsamples = 1\nvalue = 5.0"] ;
1146 -> 1148 ;
1149 [label="X[3] <= -2.443\nmse = 2.8039\nsamples = 46\nvalue = 7.9783"] ;
1141 -> 1149 ;
1150 [label="X[45] <= -1.1972\nmse = 1.0\nsamples = 2\nvalue = 4.0"] ;
1149 -> 1150 ;
1151 [label="mse = 0.0\nsamples = 1\nvalue = 3.0"] ;
1150 -> 1151 ;
1152 [label="mse = 0.0\nsamples = 1\nvalue = 5.0"] ;
1150 -> 1152 ;
1153 [label="X[20] <= -0.7695\nmse = 2.1338\nsamples = 44\nvalue = 8.1591"] ;
1149 -> 1153 ;
1154 [label="mse = 0.7438\nsamples = 11\nvalue = 6.7273"] ;
1153 -> 1154 ;
1155 [label="mse = 1.686\nsamples = 33\nvalue = 8.6364"] ;
1153 -> 1155 ;
1156 [label="mse = 0.0\nsamples = 1\nvalue = 2.5"] ;
1140 -> 1156 ;
1157 [label="X[33] <= -1.1696\nmse = 3.6317\nsamples = 896\nvalue = 7.4517"] ;
1139 -> 1157 ;
1158 [label="X[62] <= -0.3208\nmse = 4.4785\nsamples = 363\nvalue = 7.0613"] ;
1157 -> 1158 ;
1159 [label="X[51] <= 0.7695\nmse = 4.4646\nsamples = 120\nvalue = 7.6292"] ;
1158 -> 1159 ;
1160 [label="X[66] <= -1.0829\nmse = 3.4773\nsamples = 80\nvalue = 8.1875"] ;
1159 -> 1160 ;
1161 [label="mse = 0.5833\nsamples = 18\nvalue = 9.5"] ;
1160 -> 1161 ;
1162 [label="mse = 3.6722\nsamples = 62\nvalue = 7.8065"] ;
1160 -> 1162 ;
1163 [label="X[1] <= 0.1917\nmse = 4.5686\nsamples = 40\nvalue = 6.5125"] ;
1159 -> 1163 ;
1164 [label="mse = 1.1667\nsamples = 3\nvalue = 2.5"] ;
1163 -> 1164 ;
1165 [label="mse = 3.4332\nsamples = 37\nvalue = 6.8378"] ;
1163 -> 1165 ;
1166 [label="X[64] <= 0.3437\nmse = 4.2475\nsamples = 243\nvalue = 6.7809"] ;
1158 -> 1166 ;
1167 [label="X[43] <= -2.7719\nmse = 4.0612\nsamples = 151\nvalue = 6.4156"] ;
1166 -> 1167 ;
1168 [label="mse = 4.9253\nsamples = 6\nvalue = 3.4583"] ;
1167 -> 1168 ;
1169 [label="mse = 3.6486\nsamples = 145\nvalue = 6.5379"] ;
1167 -> 1169 ;
1170 [label="X[31] <= -0.4909\nmse = 3.9748\nsamples = 92\nvalue = 7.3804"] ;
1166 -> 1170 ;
1171 [label="mse = 4.16\nsamples = 5\nvalue = 4.2"] ;
1170 -> 1171 ;
1172 [label="mse = 3.3495\nsamples = 87\nvalue = 7.5632"] ;
1170 -> 1172 ;
1173 [label="X[51] <= 0.5127\nmse = 2.8804\nsamples = 533\nvalue = 7.7176"] ;
1157 -> 1173 ;
1174 [label="X[53] <= 0.2485\nmse = 2.7426\nsamples = 295\nvalue = 8.0254"] ;
1173 -> 1174 ;
1175 [label="X[39] <= 1.2529\nmse = 2.4611\nsamples = 211\nvalue = 7.7938"] ;
1174 -> 1175 ;
1176 [label="mse = 2.2709\nsamples = 187\nvalue = 7.9439"] ;
1175 -> 1176 ;
1177 [label="mse = 2.401\nsamples = 24\nvalue = 6.625"] ;
1175 -> 1177 ;
1178 [label="X[7] <= -1.0038\nmse = 2.9766\nsamples = 84\nvalue = 8.6071"] ;
1174 -> 1178 ;
1179 [label="mse = 6.56\nsamples = 5\nvalue = 5.8"] ;
1178 -> 1179 ;
1180 [label="mse = 2.2195\nsamples = 79\nvalue = 8.7848"] ;
1178 -> 1180 ;
1181 [label="X[64] <= -1.6047\nmse = 2.7883\nsamples = 238\nvalue = 7.3361"] ;
1173 -> 1181 ;
1182 [label="X[27] <= -0.463\nmse = 0.0625\nsamples = 2\nvalue = 1.75"] ;
1181 -> 1182 ;
1183 [label="mse = 0.0\nsamples = 1\nvalue = 2.0"] ;
1182 -> 1183 ;
1184 [label="mse = 0.0\nsamples = 1\nvalue = 1.5"] ;
1182 -> 1184 ;
1185 [label="X[2] <= 1.566\nmse = 2.5447\nsamples = 236\nvalue = 7.3835"] ;
1181 -> 1185 ;
1186 [label="mse = 2.0111\nsamples = 218\nvalue = 7.5183"] ;
1185 -> 1186 ;
1187 [label="mse = 6.1181\nsamples = 18\nvalue = 5.75"] ;
1185 -> 1187 ;
1188 [label="X[32] <= -0.0582\nmse = 2.7204\nsamples = 3627\nvalue = 8.4815"] ;
1138 -> 1188 ;
1189 [label="X[13] <= -0.1976\nmse = 2.0444\nsamples = 1652\nvalue = 8.7544"] ;
1188 -> 1189 ;
1190 [label="X[69] <= -0.1957\nmse = 2.1437\nsamples = 1059\nvalue = 8.5918"] ;
1189 -> 1190 ;
1191 [label="X[41] <= 1.9712\nmse = 2.5495\nsamples = 437\nvalue = 8.23"] ;
1190 -> 1191 ;
1192 [label="X[42] <= 0.7667\nmse = 2.4226\nsamples = 433\nvalue = 8.2644"] ;
1191 -> 1192 ;
1193 [label="mse = 2.322\nsamples = 432\nvalue = 8.2801"] ;
1192 -> 1193 ;
1194 [label="mse = 0.0\nsamples = 1\nvalue = 1.5"] ;
1192 -> 1194 ;
1195 [label="X[9] <= -0.0116\nmse = 2.25\nsamples = 4\nvalue = 4.5"] ;
1191 -> 1195 ;
1196 [label="mse = 0.0\nsamples = 2\nvalue = 6.0"] ;
1195 -> 1196 ;
1197 [label="mse = 0.0\nsamples = 2\nvalue = 3.0"] ;
1195 -> 1197 ;
1198 [label="X[19] <= 0.0731\nmse = 1.7019\nsamples = 622\nvalue = 8.8461"] ;
1190 -> 1198 ;
1199 [label="X[29] <= 1.2192\nmse = 0.9762\nsamples = 159\nvalue = 9.3255"] ;
1198 -> 1199 ;
1200 [label="mse = 0.514\nsamples = 158\nvalue = 9.3797"] ;
1199 -> 1200 ;
1201 [label="mse = 0.0\nsamples = 1\nvalue = 0.75"] ;
1199 -> 1201 ;
1202 [label="X[51] <= 1.2173\nmse = 1.8451\nsamples = 463\nvalue = 8.6814"] ;
1198 -> 1202 ;
1203 [label="mse = 1.5362\nsamples = 440\nvalue = 8.7614"] ;
1202 -> 1203 ;
1204 [label="mse = 5.2921\nsamples = 23\nvalue = 7.1522"] ;
1202 -> 1204 ;
1205 [label="X[43] <= -2.5712\nmse = 1.7356\nsamples = 593\nvalue = 9.0447"] ;
1189 -> 1205 ;
1206 [label="X[17] <= -0.3138\nmse = 8.6492\nsamples = 14\nvalue = 7.3929"] ;
1205 -> 1206 ;
1207 [label="X[9] <= 1.2728\nmse = 8.358\nsamples = 9\nvalue = 6.0556"] ;
1206 -> 1207 ;
1208 [label="mse = 3.24\nsamples = 5\nvalue = 3.9"] ;
1207 -> 1208 ;
1209 [label="mse = 1.6875\nsamples = 4\nvalue = 8.75"] ;
1207 -> 1209 ;
1210 [label="X[63] <= -0.0387\nmse = 0.16\nsamples = 5\nvalue = 9.8"] ;
1206 -> 1210 ;
1211 [label="mse = 0.0\nsamples = 1\nvalue = 9.0"] ;
1210 -> 1211 ;
1212 [label="mse = 0.0\nsamples = 4\nvalue = 10.0"] ;
1210 -> 1212 ;
1213 [label="X[53] <= -0.196\nmse = 1.5008\nsamples = 579\nvalue = 9.0846"] ;
1205 -> 1213 ;
1214 [label="X[50] <= -0.0033\nmse = 1.9969\nsamples = 200\nvalue = 8.7112"] ;
1213 -> 1214 ;
1215 [label="mse = 1.5265\nsamples = 92\nvalue = 9.1304"] ;
1214 -> 1215 ;
1216 [label="mse = 2.1205\nsamples = 108\nvalue = 8.3542"] ;
1214 -> 1216 ;
1217 [label="X[3] <= -0.1229\nmse = 1.1266\nsamples = 379\nvalue = 9.2817"] ;
1213 -> 1217 ;
1218 [label="mse = 2.219\nsamples = 97\nvalue = 8.8015"] ;
1217 -> 1218 ;
1219 [label="mse = 0.6443\nsamples = 282\nvalue = 9.4468"] ;
1217 -> 1219 ;
1220 [label="X[31] <= -0.5215\nmse = 3.1714\nsamples = 1975\nvalue = 8.2532"] ;
1188 -> 1220 ;
1221 [label="X[25] <= -2.4288\nmse = 2.6192\nsamples = 488\nvalue = 8.6885"] ;
1220 -> 1221 ;
1222 [label="X[13] <= -1.7451\nmse = 0.2222\nsamples = 3\nvalue = 3.3333"] ;
1221 -> 1222 ;
1223 [label="mse = 0.0\nsamples = 1\nvalue = 4.0"] ;
1222 -> 1223 ;
1224 [label="mse = 0.0\nsamples = 2\nvalue = 3.0"] ;
1222 -> 1224 ;
1225 [label="X[2] <= -1.1532\nmse = 2.4555\nsamples = 485\nvalue = 8.7216"] ;
1221 -> 1225 ;
1226 [label="mse = 0.0\nsamples = 1\nvalue = 2.0"] ;
1225 -> 1226 ;
1227 [label="X[32] <= 0.9416\nmse = 2.367\nsamples = 484\nvalue = 8.7355"] ;
1225 -> 1227 ;
1228 [label="mse = 1.763\nsamples = 392\nvalue = 8.8673"] ;
1227 -> 1228 ;
1229 [label="mse = 4.5513\nsamples = 92\nvalue = 8.1739"] ;
1227 -> 1229 ;
1230 [label="X[53] <= -1.9741\nmse = 3.27\nsamples = 1487\nvalue = 8.1103"] ;
1220 -> 1230 ;
1231 [label="X[21] <= -0.2485\nmse = 5.684\nsamples = 98\nvalue = 7.1224"] ;
1230 -> 1231 ;
1232 [label="X[3] <= -0.9478\nmse = 1.0663\nsamples = 14\nvalue = 8.9286"] ;
1231 -> 1232 ;
1233 [label="mse = 0.0\nsamples = 2\nvalue = 7.0"] ;
1232 -> 1233 ;
1234 [label="mse = 0.5208\nsamples = 12\nvalue = 9.25"] ;
1232 -> 1234 ;
1235 [label="X[50] <= -0.7801\nmse = 5.8193\nsamples = 84\nvalue = 6.8214"] ;
1231 -> 1235 ;
1236 [label="mse = 5.7712\nsamples = 22\nvalue = 5.3864"] ;
1235 -> 1236 ;
1237 [label="mse = 4.8463\nsamples = 62\nvalue = 7.3306"] ;
1235 -> 1237 ;
1238 [label="X[2] <= 2.3987\nmse = 3.026\nsamples = 1389\nvalue = 8.18"] ;
1230 -> 1238 ;
1239 [label="X[59] <= 1.9327\nmse = 2.9171\nsamples = 1375\nvalue = 8.2069"] ;
1238 -> 1239 ;
1240 [label="mse = 2.8429\nsamples = 1370\nvalue = 8.2226"] ;
1239 -> 1240 ;
1241 [label="mse = 4.64\nsamples = 5\nvalue = 3.9"] ;
1239 -> 1241 ;
1242 [label="X[43] <= -1.2663\nmse = 6.6594\nsamples = 14\nvalue = 5.5357"] ;
1238 -> 1242 ;
1243 [label="mse = 2.24\nsamples = 5\nvalue = 2.9"] ;
1242 -> 1243 ;
1244 [label="mse = 3.1111\nsamples = 9\nvalue = 7.0"] ;
1242 -> 1244 ;
1245 [label="X[53] <= 0.2485\nmse = 2.1903\nsamples = 3282\nvalue = 9.0411"] ;
1137 -> 1245 ;
1246 [label="X[51] <= -0.3214\nmse = 2.475\nsamples = 1827\nvalue = 8.8298"] ;
1245 -> 1246 ;
1247 [label="X[3] <= -2.1852\nmse = 1.6521\nsamples = 905\nvalue = 9.1193"] ;
1246 -> 1247 ;
1248 [label="X[36] <= -0.3706\nmse = 5.6944\nsamples = 18\nvalue = 6.8333"] ;
1247 -> 1248 ;
1249 [label="X[61] <= -1.3867\nmse = 4.0556\nsamples = 12\nvalue = 5.6667"] ;
1248 -> 1249 ;
1250 [label="X[16] <= -1.0151\nmse = 0.8889\nsamples = 3\nvalue = 8.3333"] ;
1249 -> 1250 ;
1251 [label="mse = 0.0\nsamples = 2\nvalue = 9.0"] ;
1250 -> 1251 ;
1252 [label="mse = 0.0\nsamples = 1\nvalue = 7.0"] ;
1250 -> 1252 ;
1253 [label="X[8] <= -0.7226\nmse = 1.9506\nsamples = 9\nvalue = 4.7778"] ;
1249 -> 1253 ;
1254 [label="mse = 0.25\nsamples = 4\nvalue = 3.5"] ;
1253 -> 1254 ;
1255 [label="mse = 0.96\nsamples = 5\nvalue = 5.8"] ;
1253 -> 1255 ;
1256 [label="X[23] <= 0.0259\nmse = 0.8056\nsamples = 6\nvalue = 9.1667"] ;
1248 -> 1256 ;
